<?xml version="1.0"?>
<opencv_storage>
<stage18>
  <maxWeakCount>100</maxWeakCount>
  <stageThreshold>-1.0254468917846680e+00</stageThreshold>
  <weakClassifiers>
    <_>
      <internalNodes>
        0 -1 200679 3.1636841595172882e-03</internalNodes>
      <leafValues>
        2.6652631163597107e-01 5.5045264959335327e-01</leafValues></_>
    <_>
      <internalNodes>
        0 -1 152242 -2.9469137080013752e-03</internalNodes>
      <leafValues>
        2.2071540355682373e-01 -8.1962577998638153e-02</leafValues></_>
    <_>
      <internalNodes>
        0 -1 169487 6.9247826468199492e-04</internalNodes>
      <leafValues>
        6.8144403398036957e-02 -3.1986898183822632e-01</leafValues></_>
    <_>
      <internalNodes>
        0 -1 84334 2.5736527517437935e-02</internalNodes>
      <leafValues>
        -8.4470584988594055e-02 2.5835216045379639e-01</leafValues></_>
    <_>
      <internalNodes>
        0 -1 59608 -3.7929238751530647e-03</internalNodes>
      <leafValues>
        2.3427496850490570e-01 -1.3026265799999237e-01</leafValues></_>
    <_>
      <internalNodes>
        0 -1 122681 4.2479223338887095e-04</internalNodes>
      <leafValues>
        -9.6390224993228912e-02 2.1792769432067871e-01</leafValues></_>
    <_>
      <internalNodes>
        0 -1 156598 -9.3166704755276442e-04</internalNodes>
      <leafValues>
        -3.2442957162857056e-01 6.9828376173973083e-02</leafValues></_>
    <_>
      <internalNodes>
        0 -1 210913 1.2328055163379759e-05</internalNodes>
      <leafValues>
        -1.4427591860294342e-01 1.3242244720458984e-01</leafValues></_>
    <_>
      <internalNodes>
        0 -1 107818 -1.5368990716524422e-04</internalNodes>
      <leafValues>
        1.7222967743873596e-01 -1.2036437541246414e-01</leafValues></_>
    <_>
      <internalNodes>
        0 -1 126890 6.6668968647718430e-03</internalNodes>
      <leafValues>
        -8.8103748857975006e-02 2.1443808078765869e-01</leafValues></_>
    <_>
      <internalNodes>
        0 -1 106598 -3.5787373781204224e-01</internalNodes>
      <leafValues>
        2.7919811010360718e-01 -9.4782359898090363e-02</leafValues></_>
    <_>
      <internalNodes>
        0 -1 231051 1.3361783203436062e-05</internalNodes>
      <leafValues>
        -1.4240574836730957e-01 1.4013285934925079e-01</leafValues></_>
    <_>
      <internalNodes>
        0 -1 119116 1.7640382051467896e-02</internalNodes>
      <leafValues>
        -8.7763741612434387e-02 2.4297946691513062e-01</leafValues></_>
    <_>
      <internalNodes>
        0 -1 198613 -2.0467704162001610e-03</internalNodes>
      <leafValues>
        2.8641611337661743e-01 -6.9923654198646545e-02</leafValues></_>
    <_>
      <internalNodes>
        0 -1 197904 -2.4992898106575012e-03</internalNodes>
      <leafValues>
        3.7092792987823486e-01 -6.6172108054161072e-02</leafValues></_>
    <_>
      <internalNodes>
        0 -1 95640 -2.1987049840390682e-03</internalNodes>
      <leafValues>
        3.8067978620529175e-01 -4.8304241150617599e-02</leafValues></_>
    <_>
      <internalNodes>
        0 -1 64776 3.5679697990417480e-02</internalNodes>
      <leafValues>
        -7.0517927408218384e-02 2.7165782451629639e-01</leafValues></_>
    <_>
      <internalNodes>
        0 -1 75105 2.4207455571740866e-03</internalNodes>
      <leafValues>
        8.3711944520473480e-02 -2.4416096508502960e-01</leafValues></_>
    <_>
      <internalNodes>
        0 -1 138288 3.2445238903164864e-03</internalNodes>
      <leafValues>
        -8.0964386463165283e-02 2.6479169726371765e-01</leafValues></_>
    <_>
      <internalNodes>
        0 -1 166997 5.9618152590701357e-05</internalNodes>
      <leafValues>
        -1.7549763619899750e-01 1.2160375714302063e-01</leafValues></_>
    <_>
      <internalNodes>
        0 -1 24825 -4.2136092670261860e-03</internalNodes>
      <leafValues>
        1.9053331017494202e-01 -1.0624375939369202e-01</leafValues></_>
    <_>
      <internalNodes>
        0 -1 104205 -3.5407771356403828e-03</internalNodes>
      <leafValues>
        3.0160868167877197e-01 -5.5301669985055923e-02</leafValues></_>
    <_>
      <internalNodes>
        0 -1 6553 -3.4397677518427372e-04</internalNodes>
      <leafValues>
        -2.0953227579593658e-01 9.3640230596065521e-02</leafValues></_>
    <_>
      <internalNodes>
        0 -1 6549 6.7807006416842341e-04</internalNodes>
      <leafValues>
        5.0814200192689896e-02 -3.6473610997200012e-01</leafValues></_>
    <_>
      <internalNodes>
        0 -1 138795 -6.5011326223611832e-03</internalNodes>
      <leafValues>
        1.8020424246788025e-01 -9.8423540592193604e-02</leafValues></_>
    <_>
      <internalNodes>
        0 -1 193800 -1.6449805116280913e-03</internalNodes>
      <leafValues>
        -3.0240422487258911e-01 6.0137338936328888e-02</leafValues></_>
    <_>
      <internalNodes>
        0 -1 87959 -5.1284409128129482e-03</internalNodes>
      <leafValues>
        3.1105780601501465e-01 -6.0250055044889450e-02</leafValues></_>
    <_>
      <internalNodes>
        0 -1 94640 3.8807047531008720e-03</internalNodes>
      <leafValues>
        -8.2791619002819061e-02 2.0953267812728882e-01</leafValues></_>
    <_>
      <internalNodes>
        0 -1 43991 -2.3026438429951668e-03</internalNodes>
      <leafValues>
        3.3428272604942322e-01 -4.9230132251977921e-02</leafValues></_>
    <_>
      <internalNodes>
        0 -1 23634 2.8659433155553415e-05</internalNodes>
      <leafValues>
        -1.1314411461353302e-01 1.4124718308448792e-01</leafValues></_>
    <_>
      <internalNodes>
        0 -1 7704 8.2332715392112732e-03</internalNodes>
      <leafValues>
        -4.5269049704074860e-02 3.9257392287254333e-01</leafValues></_>
    <_>
      <internalNodes>
        0 -1 261559 3.0906931497156620e-03</internalNodes>
      <leafValues>
        6.6560521721839905e-02 -2.7008152008056641e-01</leafValues></_>
    <_>
      <internalNodes>
        0 -1 255348 -2.9618906410178170e-05</internalNodes>
      <leafValues>
        1.4406229555606842e-01 -1.1554921418428421e-01</leafValues></_>
    <_>
      <internalNodes>
        0 -1 70729 -4.2886570096015930e-02</internalNodes>
      <leafValues>
        -5.6718999147415161e-01 3.0703188851475716e-02</leafValues></_>
    <_>
      <internalNodes>
        0 -1 89831 -1.6492051145178266e-05</internalNodes>
      <leafValues>
        1.0353522747755051e-01 -1.6941766440868378e-01</leafValues></_>
    <_>
      <internalNodes>
        0 -1 136010 -6.3836589455604553e-02</internalNodes>
      <leafValues>
        2.6985287666320801e-01 -7.2439640760421753e-02</leafValues></_>
    <_>
      <internalNodes>
        0 -1 187389 -5.8773599565029144e-02</internalNodes>
      <leafValues>
        -5.2169680595397949e-01 3.4521684050559998e-02</leafValues></_>
    <_>
      <internalNodes>
        0 -1 141891 6.5129355061799288e-04</internalNodes>
      <leafValues>
        4.7325797379016876e-02 -3.2743459939956665e-01</leafValues></_>
    <_>
      <internalNodes>
        0 -1 73363 2.8583836555480957e-01</internalNodes>
      <leafValues>
        2.3845357820391655e-02 -6.7717164754867554e-01</leafValues></_>
    <_>
      <internalNodes>
        0 -1 212433 1.6332254745066166e-03</internalNodes>
      <leafValues>
        -8.2965455949306488e-02 2.0524601638317108e-01</leafValues></_>
    <_>
      <internalNodes>
        0 -1 221609 2.1611968986690044e-03</internalNodes>
      <leafValues>
        -7.7709577977657318e-02 2.0944023132324219e-01</leafValues></_>
    <_>
      <internalNodes>
        0 -1 222451 -7.7813174575567245e-03</internalNodes>
      <leafValues>
        -5.1896864175796509e-01 3.4882269799709320e-02</leafValues></_>
    <_>
      <internalNodes>
        0 -1 191243 5.2353967475937679e-05</internalNodes>
      <leafValues>
        -1.4074823260307312e-01 1.3075110316276550e-01</leafValues></_>
    <_>
      <internalNodes>
        0 -1 221112 -2.9907180578447878e-04</internalNodes>
      <leafValues>
        2.0826815068721771e-01 -9.2561140656471252e-02</leafValues></_>
    <_>
      <internalNodes>
        0 -1 13072 1.2162799015641212e-02</internalNodes>
      <leafValues>
        4.2267177253961563e-02 -4.3389791250228882e-01</leafValues></_>
    <_>
      <internalNodes>
        0 -1 175044 -1.5863175576669164e-05</internalNodes>
      <leafValues>
        1.2738880515098572e-01 -1.3080932199954987e-01</leafValues></_>
    <_>
      <internalNodes>
        0 -1 239942 -1.5772566199302673e-02</internalNodes>
      <leafValues>
        2.5334289669990540e-01 -6.4236402511596680e-02</leafValues></_>
    <_>
      <internalNodes>
        0 -1 183552 -4.9731535837054253e-03</internalNodes>
      <leafValues>
        2.1146380901336670e-01 -8.7403304874897003e-02</leafValues></_>
    <_>
      <internalNodes>
        0 -1 161423 2.2566286846995354e-02</internalNodes>
      <leafValues>
        1.8443709239363670e-02 -9.0808856487274170e-01</leafValues></_>
    <_>
      <internalNodes>
        0 -1 15570 -2.3384750820696354e-03</internalNodes>
      <leafValues>
        4.4133982062339783e-01 -4.2445730417966843e-02</leafValues></_>
    <_>
      <internalNodes>
        0 -1 66659 6.4172432757914066e-04</internalNodes>
      <leafValues>
        4.5860230922698975e-02 -3.8105601072311401e-01</leafValues></_>
    <_>
      <internalNodes>
        0 -1 217767 2.8462854679673910e-03</internalNodes>
      <leafValues>
        -9.0196482837200165e-02 1.8028236925601959e-01</leafValues></_>
    <_>
      <internalNodes>
        0 -1 258385 -1.7867443966679275e-04</internalNodes>
      <leafValues>
        1.7202994227409363e-01 -9.6001237630844116e-02</leafValues></_>
    <_>
      <internalNodes>
        0 -1 257025 6.2829153612256050e-03</internalNodes>
      <leafValues>
        -5.9515316039323807e-02 2.6828509569168091e-01</leafValues></_>
    <_>
      <internalNodes>
        0 -1 258630 -2.4989010853460059e-05</internalNodes>
      <leafValues>
        1.4437121152877808e-01 -1.1677227169275284e-01</leafValues></_>
    <_>
      <internalNodes>
        0 -1 160574 -3.4315370023250580e-02</internalNodes>
      <leafValues>
        2.1652701497077942e-01 -8.0291651189327240e-02</leafValues></_>
    <_>
      <internalNodes>
        0 -1 214622 6.5677519887685776e-04</internalNodes>
      <leafValues>
        4.4694613665342331e-02 -3.9630550146102905e-01</leafValues></_>
    <_>
      <internalNodes>
        0 -1 258546 1.6143482644110918e-03</internalNodes>
      <leafValues>
        -9.4161547720432281e-02 1.9894203543663025e-01</leafValues></_>
    <_>
      <internalNodes>
        0 -1 28385 -3.2167551107704639e-03</internalNodes>
      <leafValues>
        2.9895621538162231e-01 -5.4542593657970428e-02</leafValues></_>
    <_>
      <internalNodes>
        0 -1 51370 -9.2433452606201172e-02</internalNodes>
      <leafValues>
        2.4322172999382019e-01 -6.8393595516681671e-02</leafValues></_>
    <_>
      <internalNodes>
        0 -1 168582 1.9309574738144875e-02</internalNodes>
      <leafValues>
        -3.9592240005731583e-02 4.0652832388877869e-01</leafValues></_>
    <_>
      <internalNodes>
        0 -1 83681 3.7328701466321945e-02</internalNodes>
      <leafValues>
        -9.2056296765804291e-02 1.8689242005348206e-01</leafValues></_>
    <_>
      <internalNodes>
        0 -1 154996 -3.4288067836314440e-03</internalNodes>
      <leafValues>
        4.5002591609954834e-01 -4.0279731154441833e-02</leafValues></_>
    <_>
      <internalNodes>
        0 -1 181354 1.1362056247889996e-03</internalNodes>
      <leafValues>
        6.1027586460113525e-02 -2.7280437946319580e-01</leafValues></_>
    <_>
      <internalNodes>
        0 -1 60487 1.5266624977812171e-03</internalNodes>
      <leafValues>
        -1.0134918242692947e-01 1.6740569472312927e-01</leafValues></_>
    <_>
      <internalNodes>
        0 -1 16033 2.4712874437682331e-04</internalNodes>
      <leafValues>
        7.0604689419269562e-02 -2.3356243968009949e-01</leafValues></_>
    <_>
      <internalNodes>
        0 -1 190045 2.3633163073100150e-04</internalNodes>
      <leafValues>
        -1.0342753678560257e-01 1.5696272253990173e-01</leafValues></_>
    <_>
      <internalNodes>
        0 -1 199983 9.8373554646968842e-03</internalNodes>
      <leafValues>
        3.3095907419919968e-02 -5.2376377582550049e-01</leafValues></_>
    <_>
      <internalNodes>
        0 -1 165206 -7.2637558914721012e-03</internalNodes>
      <leafValues>
        2.9963228106498718e-01 -5.6691374629735947e-02</leafValues></_>
    <_>
      <internalNodes>
        0 -1 177117 -5.3526991978287697e-03</internalNodes>
      <leafValues>
        -2.3413814604282379e-01 7.7135607600212097e-02</leafValues></_>
    <_>
      <internalNodes>
        0 -1 165199 -1.6625404532533139e-04</internalNodes>
      <leafValues>
        1.6118305921554565e-01 -1.1264746636152267e-01</leafValues></_>
    <_>
      <internalNodes>
        0 -1 189604 -1.4158813282847404e-02</internalNodes>
      <leafValues>
        -6.3692396879196167e-01 2.7956949546933174e-02</leafValues></_>
    <_>
      <internalNodes>
        0 -1 120146 2.4380311369895935e-03</internalNodes>
      <leafValues>
        -5.5039782077074051e-02 3.2764279842376709e-01</leafValues></_>
    <_>
      <internalNodes>
        0 -1 14447 4.7567963600158691e-02</internalNodes>
      <leafValues>
        -8.2277931272983551e-02 2.1009184420108795e-01</leafValues></_>
    <_>
      <internalNodes>
        0 -1 166589 -7.2444397956132889e-03</internalNodes>
      <leafValues>
        2.1169191598892212e-01 -8.6545288562774658e-02</leafValues></_>
    <_>
      <internalNodes>
        0 -1 152126 -2.1732039749622345e-02</internalNodes>
      <leafValues>
        -3.4368878602981567e-01 5.8411315083503723e-02</leafValues></_>
    <_>
      <internalNodes>
        0 -1 39373 -1.2358415871858597e-02</internalNodes>
      <leafValues>
        2.2635796666145325e-01 -7.7402614057064056e-02</leafValues></_>
    <_>
      <internalNodes>
        0 -1 123414 2.6006344705820084e-04</internalNodes>
      <leafValues>
        -9.1700114309787750e-02 1.7534098029136658e-01</leafValues></_>
    <_>
      <internalNodes>
        0 -1 103519 2.1287601441144943e-02</internalNodes>
      <leafValues>
        -1.8674145638942719e-01 1.1001520603895187e-01</leafValues></_>
    <_>
      <internalNodes>
        0 -1 246037 4.6754634240642190e-04</internalNodes>
      <leafValues>
        7.5638420879840851e-02 -2.3071879148483276e-01</leafValues></_>
    <_>
      <internalNodes>
        0 -1 218914 -1.9272629870101810e-03</internalNodes>
      <leafValues>
        4.2633000016212463e-01 -4.4372759759426117e-02</leafValues></_>
    <_>
      <internalNodes>
        0 -1 168889 -1.1809704119514208e-05</internalNodes>
      <leafValues>
        1.6204680502414703e-01 -1.0240124166011810e-01</leafValues></_>
    <_>
      <internalNodes>
        0 -1 254528 1.5777139924466610e-03</internalNodes>
      <leafValues>
        -9.3359418213367462e-02 1.7979148030281067e-01</leafValues></_>
    <_>
      <internalNodes>
        0 -1 244673 -1.1955909030803014e-05</internalNodes>
      <leafValues>
        1.4619904756546021e-01 -1.1064676940441132e-01</leafValues></_>
    <_>
      <internalNodes>
        0 -1 231608 2.2784774191677570e-03</internalNodes>
      <leafValues>
        -4.6297829598188400e-02 3.4222301840782166e-01</leafValues></_>
    <_>
      <internalNodes>
        0 -1 18876 1.2353580132185016e-05</internalNodes>
      <leafValues>
        -1.0648012906312943e-01 1.5500874817371368e-01</leafValues></_>
    <_>
      <internalNodes>
        0 -1 15577 -6.2615924980491400e-04</internalNodes>
      <leafValues>
        -1.9184349477291107e-01 8.3249978721141815e-02</leafValues></_>
    <_>
      <internalNodes>
        0 -1 64512 4.5756245963275433e-03</internalNodes>
      <leafValues>
        -5.7102590799331665e-02 2.9309251904487610e-01</leafValues></_>
    <_>
      <internalNodes>
        0 -1 98971 -2.6540583930909634e-03</internalNodes>
      <leafValues>
        -2.9081964492797852e-01 5.7010486721992493e-02</leafValues></_>
    <_>
      <internalNodes>
        0 -1 118426 -4.3113529682159424e-03</internalNodes>
      <leafValues>
        3.8662624359130859e-01 -4.4629212468862534e-02</leafValues></_>
    <_>
      <internalNodes>
        0 -1 30094 5.4746805690228939e-03</internalNodes>
      <leafValues>
        -9.0596266090869904e-02 1.7614370584487915e-01</leafValues></_>
    <_>
      <internalNodes>
        0 -1 260519 7.3839539254549891e-05</internalNodes>
      <leafValues>
        -1.0744912177324295e-01 1.5083223581314087e-01</leafValues></_>
    <_>
      <internalNodes>
        0 -1 259937 3.1554908491671085e-03</internalNodes>
      <leafValues>
        -6.6491313278675079e-02 2.4736511707305908e-01</leafValues></_>
    <_>
      <internalNodes>
        0 -1 258246 3.5729934461414814e-04</internalNodes>
      <leafValues>
        -1.2451042979955673e-01 1.3857001066207886e-01</leafValues></_>
    <_>
      <internalNodes>
        0 -1 261157 2.1491548046469688e-02</internalNodes>
      <leafValues>
        3.5605903714895248e-02 -4.7352033853530884e-01</leafValues></_>
    <_>
      <internalNodes>
        0 -1 259175 -5.1521707791835070e-04</internalNodes>
      <leafValues>
        -2.5417912006378174e-01 5.8577001094818115e-02</leafValues></_>
    <_>
      <internalNodes>
        0 -1 237876 3.5800738260149956e-03</internalNodes>
      <leafValues>
        -8.9622221887111664e-02 1.8513794243335724e-01</leafValues></_>
    <_>
      <internalNodes>
        0 -1 155053 -9.4055646331980824e-04</internalNodes>
      <leafValues>
        -2.5173163414001465e-01 6.9506205618381500e-02</leafValues></_>
    <_>
      <internalNodes>
        0 -1 261021 1.2350541510386392e-05</internalNodes>
      <leafValues>
        -1.0235464572906494e-01 1.6451554000377655e-01</leafValues></_>
    <_>
      <internalNodes>
        0 -1 91501 -3.2738512381911278e-03</internalNodes>
      <leafValues>
        3.4356811642646790e-01 -4.3836876749992371e-02</leafValues></_></weakClassifiers></stage18>
</opencv_storage>
