<?xml version="1.0"?>
<opencv_storage>
<stage2>
  <maxWeakCount>14</maxWeakCount>
  <stageThreshold>-1.2274104356765747e+00</stageThreshold>
  <weakClassifiers>
    <_>
      <internalNodes>
        0 -1 177237 -7.7807931229472160e-03</internalNodes>
      <leafValues>
        8.6734408140182495e-01 1.5769116580486298e-02</leafValues></_>
    <_>
      <internalNodes>
        0 -1 18820 3.0676442384719849e-01</internalNodes>
      <leafValues>
        3.4402105212211609e-01 -7.2080403566360474e-01</leafValues></_>
    <_>
      <internalNodes>
        0 -1 159852 1.0466896928846836e-02</internalNodes>
      <leafValues>
        -2.2164936363697052e-01 7.9123872518539429e-01</leafValues></_>
    <_>
      <internalNodes>
        0 -1 172570 -6.3442098908126354e-03</internalNodes>
      <leafValues>
        6.7871999740600586e-01 -2.1127767860889435e-01</leafValues></_>
    <_>
      <internalNodes>
        0 -1 126124 2.2386297583580017e-02</internalNodes>
      <leafValues>
        -1.2299438565969467e-01 7.2564774751663208e-01</leafValues></_>
    <_>
      <internalNodes>
        0 -1 167571 -1.0227061808109283e-02</internalNodes>
      <leafValues>
        7.9515153169631958e-01 -1.9964782893657684e-01</leafValues></_>
    <_>
      <internalNodes>
        0 -1 179124 1.0476402007043362e-02</internalNodes>
      <leafValues>
        -1.8189434707164764e-01 6.2207722663879395e-01</leafValues></_>
    <_>
      <internalNodes>
        0 -1 56661 1.6003977507352829e-02</internalNodes>
      <leafValues>
        -1.3233420252799988e-01 7.2081691026687622e-01</leafValues></_>
    <_>
      <internalNodes>
        0 -1 235250 1.2224100530147552e-02</internalNodes>
      <leafValues>
        -1.4696635305881500e-01 6.9939792156219482e-01</leafValues></_>
    <_>
      <internalNodes>
        0 -1 235704 -7.7062188647687435e-03</internalNodes>
      <leafValues>
        6.4392989873886108e-01 -1.6319936513900757e-01</leafValues></_>
    <_>
      <internalNodes>
        0 -1 177873 -3.5579498857259750e-02</internalNodes>
      <leafValues>
        5.9111899137496948e-01 -1.6705507040023804e-01</leafValues></_>
    <_>
      <internalNodes>
        0 -1 230338 1.4008779544383287e-05</internalNodes>
      <leafValues>
        -2.5831601023674011e-01 4.1630890965461731e-01</leafValues></_>
    <_>
      <internalNodes>
        0 -1 88724 -8.5263475775718689e-03</internalNodes>
      <leafValues>
        7.2616881132125854e-01 -1.2535412609577179e-01</leafValues></_>
    <_>
      <internalNodes>
        0 -1 10124 -1.8353169783949852e-02</internalNodes>
      <leafValues>
        7.9327493906021118e-01 -1.1495380103588104e-01</leafValues></_></weakClassifiers></stage2>
</opencv_storage>
