<?xml version="1.0"?>
<opencv_storage>
<stage3>
  <maxWeakCount>17</maxWeakCount>
  <stageThreshold>-1.0336413383483887e+00</stageThreshold>
  <weakClassifiers>
    <_>
      <internalNodes>
        0 -1 18845 3.5177016258239746e-01</internalNodes>
      <leafValues>
        5.5004703998565674e-01 -7.1698111295700073e-01</leafValues></_>
    <_>
      <internalNodes>
        0 -1 177956 -1.1451334692537785e-02</internalNodes>
      <leafValues>
        7.9616516828536987e-01 -1.9835680723190308e-01</leafValues></_>
    <_>
      <internalNodes>
        0 -1 198296 4.1868854314088821e-03</internalNodes>
      <leafValues>
        -1.6240745782852173e-01 7.0405101776123047e-01</leafValues></_>
    <_>
      <internalNodes>
        0 -1 186784 -4.2023165151476860e-03</internalNodes>
      <leafValues>
        6.1092758178710938e-01 -1.8596354126930237e-01</leafValues></_>
    <_>
      <internalNodes>
        0 -1 57985 -1.3828201219439507e-02</internalNodes>
      <leafValues>
        6.6560184955596924e-01 -1.3796974718570709e-01</leafValues></_>
    <_>
      <internalNodes>
        0 -1 75144 -3.4505669027566910e-03</internalNodes>
      <leafValues>
        5.7173341512680054e-01 -1.7442885041236877e-01</leafValues></_>
    <_>
      <internalNodes>
        0 -1 90911 3.8454402238130569e-03</internalNodes>
      <leafValues>
        -1.0721574723720551e-01 6.5200114250183105e-01</leafValues></_>
    <_>
      <internalNodes>
        0 -1 137987 1.2718833204417024e-05</internalNodes>
      <leafValues>
        -2.5943991541862488e-01 3.9118489623069763e-01</leafValues></_>
    <_>
      <internalNodes>
        0 -1 177508 -2.2329855710268021e-02</internalNodes>
      <leafValues>
        6.0319846868515015e-01 -1.7047022283077240e-01</leafValues></_>
    <_>
      <internalNodes>
        0 -1 154452 1.6363624483346939e-02</internalNodes>
      <leafValues>
        -1.2404153496026993e-01 6.4004182815551758e-01</leafValues></_>
    <_>
      <internalNodes>
        0 -1 249955 1.4417471902561374e-05</internalNodes>
      <leafValues>
        -2.3374043405056000e-01 3.8393232226371765e-01</leafValues></_>
    <_>
      <internalNodes>
        0 -1 237825 -1.0094601748278365e-05</internalNodes>
      <leafValues>
        4.0475589036941528e-01 -2.2976778447628021e-01</leafValues></_>
    <_>
      <internalNodes>
        0 -1 253912 5.9748040512204170e-03</internalNodes>
      <leafValues>
        -1.4740313589572906e-01 5.9262663125991821e-01</leafValues></_>
    <_>
      <internalNodes>
        0 -1 126992 2.1101064980030060e-02</internalNodes>
      <leafValues>
        -1.3740915060043335e-01 5.8917284011840820e-01</leafValues></_>
    <_>
      <internalNodes>
        0 -1 254222 -1.0320571251213551e-02</internalNodes>
      <leafValues>
        6.6512799263000488e-01 -1.2220989167690277e-01</leafValues></_>
    <_>
      <internalNodes>
        0 -1 162176 -1.3501928187906742e-03</internalNodes>
      <leafValues>
        5.6685721874237061e-01 -1.2375365942716599e-01</leafValues></_>
    <_>
      <internalNodes>
        0 -1 44452 -4.4600486755371094e-02</internalNodes>
      <leafValues>
        2.8026470541954041e-01 -2.9068478941917419e-01</leafValues></_></weakClassifiers></stage3>
</opencv_storage>
