<?xml version="1.0"?>
<opencv_storage>
<stage5>
  <maxWeakCount>19</maxWeakCount>
  <stageThreshold>-1.0496184825897217e+00</stageThreshold>
  <weakClassifiers>
    <_>
      <internalNodes>
        0 -1 44400 -1.4580550789833069e-01</internalNodes>
      <leafValues>
        7.5529283285140991e-01 1.1600857228040695e-01</leafValues></_>
    <_>
      <internalNodes>
        0 -1 179347 1.1809704119514208e-05</internalNodes>
      <leafValues>
        -2.2991292178630829e-01 4.4777715206146240e-01</leafValues></_>
    <_>
      <internalNodes>
        0 -1 101753 -2.2595536708831787e-01</internalNodes>
      <leafValues>
        7.8018563985824585e-01 -1.3853690028190613e-01</leafValues></_>
    <_>
      <internalNodes>
        0 -1 21268 6.2684834003448486e-02</internalNodes>
      <leafValues>
        -1.9580541551113129e-01 5.9870362281799316e-01</leafValues></_>
    <_>
      <internalNodes>
        0 -1 156214 -9.9444179795682430e-04</internalNodes>
      <leafValues>
        -6.3770109415054321e-01 1.8447047472000122e-01</leafValues></_>
    <_>
      <internalNodes>
        0 -1 164528 1.5355661162175238e-05</internalNodes>
      <leafValues>
        -3.0447661876678467e-01 3.2322147488594055e-01</leafValues></_>
    <_>
      <internalNodes>
        0 -1 156214 7.4053963180631399e-04</internalNodes>
      <leafValues>
        1.6244021058082581e-01 -6.2439376115798950e-01</leafValues></_>
    <_>
      <internalNodes>
        0 -1 164533 2.8227495931787416e-05</internalNodes>
      <leafValues>
        -2.5657439231872559e-01 3.5497310757637024e-01</leafValues></_>
    <_>
      <internalNodes>
        0 -1 164533 -1.1563195585040376e-05</internalNodes>
      <leafValues>
        3.4358993172645569e-01 -2.8138568997383118e-01</leafValues></_>
    <_>
      <internalNodes>
        0 -1 231051 1.3447511264530476e-05</internalNodes>
      <leafValues>
        -2.3489180207252502e-01 3.7638559937477112e-01</leafValues></_>
    <_>
      <internalNodes>
        0 -1 164528 -2.7549871447263286e-05</internalNodes>
      <leafValues>
        3.5054990649223328e-01 -2.7538615465164185e-01</leafValues></_>
    <_>
      <internalNodes>
        0 -1 1459 -6.9997453829273582e-04</internalNodes>
      <leafValues>
        -6.0170716047286987e-01 1.5661357343196869e-01</leafValues></_>
    <_>
      <internalNodes>
        0 -1 1459 7.6036981772631407e-04</internalNodes>
      <leafValues>
        1.4708396792411804e-01 -6.5263897180557251e-01</leafValues></_>
    <_>
      <internalNodes>
        0 -1 245236 -1.2559472452267073e-05</internalNodes>
      <leafValues>
        3.4543356299400330e-01 -2.6053014397621155e-01</leafValues></_>
    <_>
      <internalNodes>
        0 -1 245236 1.2570892977237236e-05</internalNodes>
      <leafValues>
        -2.1943527460098267e-01 3.6338835954666138e-01</leafValues></_>
    <_>
      <internalNodes>
        0 -1 138671 1.4828115126874764e-05</internalNodes>
      <leafValues>
        -2.1943020820617676e-01 3.5296750068664551e-01</leafValues></_>
    <_>
      <internalNodes>
        0 -1 107463 -2.1139025688171387e-01</internalNodes>
      <leafValues>
        4.4523695111274719e-01 -1.5066030621528625e-01</leafValues></_>
    <_>
      <internalNodes>
        0 -1 237826 1.2716040146187879e-05</internalNodes>
      <leafValues>
        -2.3828727006912231e-01 3.3976039290428162e-01</leafValues></_>
    <_>
      <internalNodes>
        0 -1 166917 -1.3367229257710278e-05</internalNodes>
      <leafValues>
        3.3619070053100586e-01 -2.2021463513374329e-01</leafValues></_></weakClassifiers></stage5>
</opencv_storage>
