<?xml version="1.0"?>
<opencv_storage>
<stage8>
  <maxWeakCount>43</maxWeakCount>
  <stageThreshold>-1.0850914716720581e+00</stageThreshold>
  <weakClassifiers>
    <_>
      <internalNodes>
        0 -1 164776 -5.1938397809863091e-03</internalNodes>
      <leafValues>
        6.5592938661575317e-01 1.3896055519580841e-01</leafValues></_>
    <_>
      <internalNodes>
        0 -1 27102 2.2817550227046013e-02</internalNodes>
      <leafValues>
        1.8738175928592682e-01 -4.2278984189033508e-01</leafValues></_>
    <_>
      <internalNodes>
        0 -1 167020 1.3368410058319569e-02</internalNodes>
      <leafValues>
        -1.4389769732952118e-01 4.2716905474662781e-01</leafValues></_>
    <_>
      <internalNodes>
        0 -1 174869 -2.3099081590771675e-03</internalNodes>
      <leafValues>
        5.5637025833129883e-01 -9.9992625415325165e-02</leafValues></_>
    <_>
      <internalNodes>
        0 -1 174050 -1.5045839827507734e-03</internalNodes>
      <leafValues>
        4.7157478332519531e-01 -1.6687807440757751e-01</leafValues></_>
    <_>
      <internalNodes>
        0 -1 104024 4.6218577772378922e-02</internalNodes>
      <leafValues>
        -7.7738657593727112e-02 5.5705422163009644e-01</leafValues></_>
    <_>
      <internalNodes>
        0 -1 143586 -2.0053273439407349e-01</internalNodes>
      <leafValues>
        4.1211003065109253e-01 -1.2200509011745453e-01</leafValues></_>
    <_>
      <internalNodes>
        0 -1 260154 -2.7152732945978642e-03</internalNodes>
      <leafValues>
        4.8497208952903748e-01 -9.5025658607482910e-02</leafValues></_>
    <_>
      <internalNodes>
        0 -1 57606 1.0836618021130562e-02</internalNodes>
      <leafValues>
        -8.2353696227073669e-02 5.4451233148574829e-01</leafValues></_>
    <_>
      <internalNodes>
        0 -1 103076 -5.8065000921487808e-03</internalNodes>
      <leafValues>
        4.6967905759811401e-01 -1.4391487836837769e-01</leafValues></_>
    <_>
      <internalNodes>
        0 -1 191147 2.7083497116109356e-05</internalNodes>
      <leafValues>
        -2.0070719718933105e-01 2.3632116615772247e-01</leafValues></_>
    <_>
      <internalNodes>
        0 -1 17634 6.4483506139367819e-04</internalNodes>
      <leafValues>
        9.8292849957942963e-02 -4.7011876106262207e-01</leafValues></_>
    <_>
      <internalNodes>
        0 -1 17634 -7.0929422508925200e-04</internalNodes>
      <leafValues>
        -5.0357413291931152e-01 9.2861145734786987e-02</leafValues></_>
    <_>
      <internalNodes>
        0 -1 164528 2.6646256446838379e-04</internalNodes>
      <leafValues>
        -1.7313970625400543e-01 2.8793665766716003e-01</leafValues></_>
    <_>
      <internalNodes>
        0 -1 8780 2.8479234315454960e-03</internalNodes>
      <leafValues>
        -1.2445691227912903e-01 3.5624641180038452e-01</leafValues></_>
    <_>
      <internalNodes>
        0 -1 134101 1.3675131835043430e-02</internalNodes>
      <leafValues>
        -2.1963199973106384e-01 2.1270990371704102e-01</leafValues></_>
    <_>
      <internalNodes>
        0 -1 112080 -2.2074900567531586e-02</internalNodes>
      <leafValues>
        4.3541738390922546e-01 -1.0658293217420578e-01</leafValues></_>
    <_>
      <internalNodes>
        0 -1 119259 -8.0637987703084946e-03</internalNodes>
      <leafValues>
        4.3508797883987427e-01 -1.0463649779558182e-01</leafValues></_>
    <_>
      <internalNodes>
        0 -1 181556 7.5122807174921036e-04</internalNodes>
      <leafValues>
        1.1223983764648438e-01 -4.5048239827156067e-01</leafValues></_>
    <_>
      <internalNodes>
        0 -1 86554 -8.4003536030650139e-03</internalNodes>
      <leafValues>
        5.1205486059188843e-01 -9.8908752202987671e-02</leafValues></_>
    <_>
      <internalNodes>
        0 -1 180539 4.0431786328554153e-03</internalNodes>
      <leafValues>
        -8.0340661108493805e-02 4.9764305353164673e-01</leafValues></_>
    <_>
      <internalNodes>
        0 -1 249426 -5.6511769071221352e-03</internalNodes>
      <leafValues>
        4.9944061040878296e-01 -7.9865954816341400e-02</leafValues></_>
    <_>
      <internalNodes>
        0 -1 17398 6.8786903284490108e-04</internalNodes>
      <leafValues>
        8.0875888466835022e-02 -5.3896272182464600e-01</leafValues></_>
    <_>
      <internalNodes>
        0 -1 125892 -6.9810301065444946e-03</internalNodes>
      <leafValues>
        3.0018249154090881e-01 -1.3808423280715942e-01</leafValues></_>
    <_>
      <internalNodes>
        0 -1 151938 1.3946664694231004e-04</internalNodes>
      <leafValues>
        -1.5597109496593475e-01 2.5153246521949768e-01</leafValues></_>
    <_>
      <internalNodes>
        0 -1 149673 -1.8600411713123322e-03</internalNodes>
      <leafValues>
        4.3316498398780823e-01 -9.1530360281467438e-02</leafValues></_>
    <_>
      <internalNodes>
        0 -1 60579 -4.3017886579036713e-02</internalNodes>
      <leafValues>
        3.7908333539962769e-01 -1.0058415681123734e-01</leafValues></_>
    <_>
      <internalNodes>
        0 -1 106348 2.4031888693571091e-02</internalNodes>
      <leafValues>
        7.2118565440177917e-02 -6.0156244039535522e-01</leafValues></_>
    <_>
      <internalNodes>
        0 -1 194839 -1.2754675000905991e-02</internalNodes>
      <leafValues>
        4.8978915810585022e-01 -9.2726521193981171e-02</leafValues></_>
    <_>
      <internalNodes>
        0 -1 79357 -7.4928015470504761e-02</internalNodes>
      <leafValues>
        3.9382281899452209e-01 -1.0502232611179352e-01</leafValues></_>
    <_>
      <internalNodes>
        0 -1 243268 3.7954607978463173e-03</internalNodes>
      <leafValues>
        -7.1346089243888855e-02 5.1382541656494141e-01</leafValues></_>
    <_>
      <internalNodes>
        0 -1 246456 -2.5459479074925184e-03</internalNodes>
      <leafValues>
        -4.2644453048706055e-01 1.0021575540304184e-01</leafValues></_>
    <_>
      <internalNodes>
        0 -1 255160 -1.2577066627272870e-05</internalNodes>
      <leafValues>
        2.3217780888080597e-01 -1.7643612623214722e-01</leafValues></_>
    <_>
      <internalNodes>
        0 -1 158555 -6.9713266566395760e-04</internalNodes>
      <leafValues>
        -4.0338897705078125e-01 1.0137090831995010e-01</leafValues></_>
    <_>
      <internalNodes>
        0 -1 242871 2.0948480814695358e-03</internalNodes>
      <leafValues>
        -1.3204461336135864e-01 3.1092560291290283e-01</leafValues></_>
    <_>
      <internalNodes>
        0 -1 242432 -1.9420949975028634e-03</internalNodes>
      <leafValues>
        3.2050022482872009e-01 -1.2580497562885284e-01</leafValues></_>
    <_>
      <internalNodes>
        0 -1 256615 8.9927134104073048e-04</internalNodes>
      <leafValues>
        8.6433850228786469e-02 -4.8345085978507996e-01</leafValues></_>
    <_>
      <internalNodes>
        0 -1 18249 -3.7412846088409424e-01</internalNodes>
      <leafValues>
        -5.4489332437515259e-01 7.0244707167148590e-02</leafValues></_>
    <_>
      <internalNodes>
        0 -1 180814 -4.3315473012626171e-03</internalNodes>
      <leafValues>
        5.5601727962493896e-01 -7.7104188501834869e-02</leafValues></_>
    <_>
      <internalNodes>
        0 -1 259449 -7.9044670565053821e-04</internalNodes>
      <leafValues>
        -4.1989201307296753e-01 1.0437414050102234e-01</leafValues></_>
    <_>
      <internalNodes>
        0 -1 259944 4.6136705204844475e-03</internalNodes>
      <leafValues>
        -1.0398865491151810e-01 4.1795256733894348e-01</leafValues></_>
    <_>
      <internalNodes>
        0 -1 171414 1.4971554279327393e-02</internalNodes>
      <leafValues>
        -6.9819435477256775e-02 5.1730507612228394e-01</leafValues></_>
    <_>
      <internalNodes>
        0 -1 133749 -5.6522134691476822e-03</internalNodes>
      <leafValues>
        4.2685216665267944e-01 -8.7012417614459991e-02</leafValues></_></weakClassifiers></stage8>
</opencv_storage>
