<?xml version="1.0"?>
<opencv_storage>
<stage1>
  <maxWeakCount>13</maxWeakCount>
  <stageThreshold>-8.3648633956909180e-01</stageThreshold>
  <weakClassifiers>
    <_>
      <internalNodes>
        0 -1 151579 -2.0455107092857361e-02</internalNodes>
      <leafValues>
        8.8684040307998657e-01 8.9409261941909790e-02</leafValues></_>
    <_>
      <internalNodes>
        0 -1 212792 1.3556374142353889e-05</internalNodes>
      <leafValues>
        -1.9222709536552429e-01 5.7995462417602539e-01</leafValues></_>
    <_>
      <internalNodes>
        0 -1 120054 -1.0811870545148849e-01</internalNodes>
      <leafValues>
        7.3934024572372437e-01 -1.8900683522224426e-01</leafValues></_>
    <_>
      <internalNodes>
        0 -1 260597 -1.1563195585040376e-05</internalNodes>
      <leafValues>
        4.6932023763656616e-01 -2.9474610090255737e-01</leafValues></_>
    <_>
      <internalNodes>
        0 -1 20929 1.1384685337543488e-01</internalNodes>
      <leafValues>
        -1.8862773478031158e-01 7.0166409015655518e-01</leafValues></_>
    <_>
      <internalNodes>
        0 -1 199930 1.1809704119514208e-05</internalNodes>
      <leafValues>
        -2.5230222940444946e-01 4.8841345310211182e-01</leafValues></_>
    <_>
      <internalNodes>
        0 -1 199930 -1.0621300134516787e-05</internalNodes>
      <leafValues>
        5.3523504734039307e-01 -3.6266037821769714e-01</leafValues></_>
    <_>
      <internalNodes>
        0 -1 179762 1.2004092241113540e-05</internalNodes>
      <leafValues>
        -2.7076837420463562e-01 4.1787514090538025e-01</leafValues></_>
    <_>
      <internalNodes>
        0 -1 179767 1.1563195585040376e-05</internalNodes>
      <leafValues>
        -2.8074294328689575e-01 4.5131137967109680e-01</leafValues></_>
    <_>
      <internalNodes>
        0 -1 116222 4.1000515222549438e-02</internalNodes>
      <leafValues>
        -1.4343227446079254e-01 7.6284652948379517e-01</leafValues></_>
    <_>
      <internalNodes>
        0 -1 179767 -1.1508433999551926e-05</internalNodes>
      <leafValues>
        4.5232042670249939e-01 -2.3587675392627716e-01</leafValues></_>
    <_>
      <internalNodes>
        0 -1 210913 1.2328055163379759e-05</internalNodes>
      <leafValues>
        -2.5789502263069153e-01 4.0443331003189087e-01</leafValues></_>
    <_>
      <internalNodes>
        0 -1 210913 -1.3523195775633212e-05</internalNodes>
      <leafValues>
        4.6441456675529480e-01 -2.9677888751029968e-01</leafValues></_></weakClassifiers></stage1>
</opencv_storage>
