<?xml version="1.0"?>
<opencv_storage>
<cascade>
  <stageType>BOOST</stageType>
  <featureType>LBP</featureType>
  <height>24</height>
  <width>48</width>
  <stageParams>
    <boostType>GAB</boostType>
    <minHitRate>9.9900001287460327e-01</minHitRate>
    <maxFalseAlarm>5.0000000000000000e-01</maxFalseAlarm>
    <weightTrimRate>9.4999999999999996e-01</weightTrimRate>
    <maxDepth>1</maxDepth>
    <maxWeakCount>100</maxWeakCount></stageParams>
  <featureParams>
    <maxCatCount>256</maxCatCount>
    <featSize>1</featSize></featureParams>
  <stageNum>3</stageNum>
  <stages>
    <!-- stage 0 -->
    <_>
      <maxWeakCount>4</maxWeakCount>
      <stageThreshold>-2.2711496353149414e+00</stageThreshold>
      <weakClassifiers>
        <_>
          <internalNodes>
            0 -1 1 -1114113 -1121830 -2951169 -2110998 -68420609
            -7349569 -6557697 -8193</internalNodes>
          <leafValues>
            -9.1874706745147705e-01 1.2773722410202026e-01</leafValues></_>
        <_>
          <internalNodes>
            0 -1 6 -172294145 -136315395 -774906369 -749612587
            -174402561 -1112802885 -2132878081 -1461136131</internalNodes>
          <leafValues>
            -8.7470752000808716e-01 3.1795111298561096e-01</leafValues></_>
        <_>
          <internalNodes>
            0 -1 2 -278212866 -1129826 -480247809 -270718688 -68449281
            -90212194 -134513665 -33591529</internalNodes>
          <leafValues>
            -8.0569618940353394e-01 4.0794062614440918e-01</leafValues></_>
        <_>
          <internalNodes>
            0 -1 8 -33620485 -41949903 -17573411 -682009712 -857953029
            -200279430 -1741104389 -1677682536</internalNodes>
          <leafValues>
            -8.6465746164321899e-01 3.9218714833259583e-01</leafValues></_></weakClassifiers></_>
    <!-- stage 1 -->
    <_>
      <maxWeakCount>5</maxWeakCount>
      <stageThreshold>-1.8970280885696411e+00</stageThreshold>
      <weakClassifiers>
        <_>
          <internalNodes>
            0 -1 1 -1114113 -80392 -145293345 -2102786 -1311745 -2127169
            -74449921 -1025</internalNodes>
          <leafValues>
            -9.1176468133926392e-01 -4.4628098607063293e-02</leafValues></_>
        <_>
          <internalNodes>
            0 -1 5 -2097153 -134282945 -1115693065 -1654803179
            -101203969 -7091329 -997197825 -720279627</internalNodes>
          <leafValues>
            -8.5586208105087280e-01 1.2964959442615509e-01</leafValues></_>
        <_>
          <internalNodes>
            0 -1 11 1879343240 961610782 281194719 871568865 935764223
            -1784660312 1358088703 -1140910593</internalNodes>
          <leafValues>
            -7.0898789167404175e-01 4.5310488343238831e-01</leafValues></_>
        <_>
          <internalNodes>
            0 -1 7 -135995393 -101066753 -149561355 -103686185
            -2010329137 -319174242 -905409137 34754447</internalNodes>
          <leafValues>
            -8.0535995960235596e-01 4.1765406727790833e-01</leafValues></_>
        <_>
          <internalNodes>
            0 -1 3 -824260358 -424775974 -44305953 -6469556 -225550402
            -19211269 -77595713 -67163937</internalNodes>
          <leafValues>
            -7.0520406961441040e-01 4.4796043634414673e-01</leafValues></_></weakClassifiers></_>
    <!-- stage 2 -->
    <_>
      <maxWeakCount>6</maxWeakCount>
      <stageThreshold>-2.5022003650665283e+00</stageThreshold>
      <weakClassifiers>
        <_>
          <internalNodes>
            0 -1 0 1574680062 -27145 -3743746 -2263073 -1077281793
            -7533921 -1349599233 -17409</internalNodes>
          <leafValues>
            -9.3706536293029785e-01 -3.7349396944046021e-01</leafValues></_>
        <_>
          <internalNodes>
            0 -1 4 -1103185921 -67594 -715340801 -1073943056 -379142913
            -1143226113 -8705 -23045</internalNodes>
          <leafValues>
            -7.3693257570266724e-01 2.3583956062793732e-01</leafValues></_>
        <_>
          <internalNodes>
            0 -1 13 -7383220 -1075848737 -33885187 -1621755049 -45355220
            -71336461 2063252074 -17826065</internalNodes>
          <leafValues>
            -6.6501051187515259e-01 4.1473278403282166e-01</leafValues></_>
        <_>
          <internalNodes>
            0 -1 9 2145386495 1063245823 -946089473 -35971822
            -1373897729 -16868685 -1396965697 -1920269134</internalNodes>
          <leafValues>
            -6.3514810800552368e-01 4.9165800213813782e-01</leafValues></_>
        <_>
          <internalNodes>
            0 -1 12 1501596170 -677937076 1595019340 1035424639
            -1774675522 990463882 524283647 -1073782849</internalNodes>
          <leafValues>
            -5.6430459022521973e-01 5.3916609287261963e-01</leafValues></_>
        <_>
          <internalNodes>
            0 -1 10 -265125736 -1690490716 61078075 1496398571 770752236
            -1401197474 1685110271 -9215749</internalNodes>
          <leafValues>
            -5.0008279085159302e-01 5.8440738916397095e-01</leafValues></_></weakClassifiers></_></stages>
  <features>
    <_>
      <rect>
        0 0 16 4</rect></_>
    <_>
      <rect>
        4 3 6 3</rect></_>
    <_>
      <rect>
        5 1 5 6</rect></_>
    <_>
      <rect>
        6 0 4 8</rect></_>
    <_>
      <rect>
        9 1 4 3</rect></_>
    <_>
      <rect>
        9 4 8 5</rect></_>
    <_>
      <rect>
        14 2 8 5</rect></_>
    <_>
      <rect>
        16 1 8 7</rect></_>
    <_>
      <rect>
        18 4 4 4</rect></_>
    <_>
      <rect>
        19 5 5 5</rect></_>
    <_>
      <rect>
        22 9 2 1</rect></_>
    <_>
      <rect>
        23 10 1 1</rect></_>
    <_>
      <rect>
        25 10 1 1</rect></_>
    <_>
      <rect>
        27 2 6 4</rect></_></features></cascade>
</opencv_storage>
