<?xml version="1.0"?>
<opencv_storage>
<cascade>
  <stageType>BOOST</stageType>
  <featureType>LBP</featureType>
  <height>24</height>
  <width>48</width>
  <stageParams>
    <boostType>GAB</boostType>
    <minHitRate>9.4999998807907104e-01</minHitRate>
    <maxFalseAlarm>5.0000000000000000e-01</maxFalseAlarm>
    <weightTrimRate>9.4999999999999996e-01</weightTrimRate>
    <maxDepth>1</maxDepth>
    <maxWeakCount>100</maxWeakCount></stageParams>
  <featureParams>
    <maxCatCount>256</maxCatCount>
    <featSize>1</featSize></featureParams>
  <stageNum>2</stageNum>
  <stages>
    <!-- stage 0 -->
    <_>
      <maxWeakCount>1</maxWeakCount>
      <stageThreshold>9.0685021877288818e-01</stageThreshold>
      <weakClassifiers>
        <_>
          <internalNodes>
            0 -1 1 -547880961 389486869 234345855 285279493 92090299
            125243199 132365 0</internalNodes>
          <leafValues>
            -6.2138086557388306e-01 9.0685021877288818e-01</leafValues></_></weakClassifiers></_>
    <!-- stage 1 -->
    <_>
      <maxWeakCount>2</maxWeakCount>
      <stageThreshold>6.6568309068679810e-01</stageThreshold>
      <weakClassifiers>
        <_>
          <internalNodes>
            0 -1 2 -721371376 -637698284 -1055900367 285548349
            -2146660470 -2012958785 134218378 230411</internalNodes>
          <leafValues>
            1.4285714365541935e-02 9.1770529747009277e-01</leafValues></_>
        <_>
          <internalNodes>
            0 -1 0 -865147138 1319633440 -285267077 1500446784
            1299596799 1536894500 1844831711 -34126781</internalNodes>
          <leafValues>
            -2.5202223658561707e-01 8.3079528808593750e-01</leafValues></_></weakClassifiers></_></stages>
  <features>
    <_>
      <rect>
        4 0 5 8</rect></_>
    <_>
      <rect>
        10 4 9 5</rect></_>
    <_>
      <rect>
        15 2 9 7</rect></_></features></cascade>
</opencv_storage>
