<?xml version="1.0"?>
<opencv_storage>
<stage1>
  <maxWeakCount>4</maxWeakCount>
  <stageThreshold>6.1604261398315430e-01</stageThreshold>
  <weakClassifiers>
    <_>
      <internalNodes>
        0 -1 12583 -1343748096 -336657339 -37257 503268607 135005444
        -1600912316 1045900703 197689</internalNodes>
      <leafValues>
        -2.7746739983558655e-01 8.9493179321289062e-01</leafValues></_>
    <_>
      <internalNodes>
        0 -1 4279 -336335650 1881874592 -1073779458 -622002176
        1307993583 -868932503 -403180145 -101759742</internalNodes>
      <leafValues>
        -2.7489259839057922e-01 7.9855990409851074e-01</leafValues></_>
    <_>
      <internalNodes>
        0 -1 16617 -111054436 -49037101 1073890048 -1827290751
        -1476362100 -1063124424 184583720 33804043</internalNodes>
      <leafValues>
        -6.0239773988723755e-01 5.6570732593536377e-01</leafValues></_>
    <_>
      <internalNodes>
        0 -1 24307 -2134278000 285544512 39130199 1032925509 -1988064853
        -1475706744 9047790 -1953787189</internalNodes>
      <leafValues>
        -4.5759239792823792e-01 6.9734787940979004e-01</leafValues></_></weakClassifiers></stage1>
</opencv_storage>
