<?xml version="1.0"?>
<opencv_storage>
<stage3>
  <maxWeakCount>6</maxWeakCount>
  <stageThreshold>-2.4889440536499023e+00</stageThreshold>
  <weakClassifiers>
    <_>
      <internalNodes>
        0 -1 10974 -65537 -17894402 -1185000961 -69198 -117441541
        -272914177 -72352769 -5185</internalNodes>
      <leafValues>
        -9.2261105775833130e-01 -3.6459329724311829e-01</leafValues></_>
    <_>
      <internalNodes>
        0 -1 14250 -7644134 -1088465953 -843579403 -8528001 -1146618385
        -1073815425 -40190977 -1058881</internalNodes>
      <leafValues>
        -7.1631848812103271e-01 2.4365961551666260e-01</leafValues></_>
    <_>
      <internalNodes>
        0 -1 23657 -2044662464 1502109328 -545264145 1533017464
        -1147535941 -1623273584 -1143211349 520880049</internalNodes>
      <leafValues>
        -7.6427942514419556e-01 2.7595034241676331e-01</leafValues></_>
    <_>
      <internalNodes>
        0 -1 23594 -784824184 -552847617 -1877192040 1532567762
        -1465280769 -317967760 -1412432129 -1620109989</internalNodes>
      <leafValues>
        -5.2482402324676514e-01 5.0115799903869629e-01</leafValues></_>
    <_>
      <internalNodes>
        0 -1 24312 -722678648 -7531320 -526262403 290805777 1235726252
        -322191734 249269914 -1718654325</internalNodes>
      <leafValues>
        -5.7313662767410278e-01 4.6372047066688538e-01</leafValues></_>
    <_>
      <internalNodes>
        0 -1 27871 -70266974 -102334321 785174112 -1073743365 -205783118
        -111438967 -1480413664 -1086341241</internalNodes>
      <leafValues>
        -6.4440709352493286e-01 4.5420768857002258e-01</leafValues></_></weakClassifiers></stage3>
</opencv_storage>
