<?xml version="1.0"?>
<opencv_storage>
<stage9>
  <maxWeakCount>7</maxWeakCount>
  <stageThreshold>3.6871972680091858e-01</stageThreshold>
  <weakClassifiers>
    <_>
      <internalNodes>
        0 -1 21425 480270584 399791568 1870594045 1305239492 1356486143
        484408781 21267893 176686080</internalNodes>
      <leafValues>
        -4.3103448115289211e-03 8.5961413383483887e-01</leafValues></_>
    <_>
      <internalNodes>
        0 -1 14607 -2086661933 -538561374 1458978444 -1957636 1121977591
        -2131622819 18646199 1163198932</internalNodes>
      <leafValues>
        -3.6584630608558655e-01 5.9810012578964233e-01</leafValues></_>
    <_>
      <internalNodes>
        0 -1 3213 -902895201 -1964994680 -1073762821 -171266464
        -941666881 1957169089 -1905505137 1333513699</internalNodes>
      <leafValues>
        -3.8157665729522705e-01 5.1505768299102783e-01</leafValues></_>
    <_>
      <internalNodes>
        0 -1 27268 -738148352 -543735486 16876609 1561794861 -141389397
        -1006501758 -1610000229 -1626404465</internalNodes>
      <leafValues>
        -3.5794454813003540e-01 5.8074730634689331e-01</leafValues></_>
    <_>
      <internalNodes>
        0 -1 25059 -904445825 1708491217 302321489 337056079 -1332255757
        -234258423 -763329654 -794957121</internalNodes>
      <leafValues>
        -4.4216677546501160e-01 4.6386414766311646e-01</leafValues></_>
    <_>
      <internalNodes>
        0 -1 26544 -805271542 -783810560 436230370 1393639575
        -1845369138 -738164607 -511462917 -1144053313</internalNodes>
      <leafValues>
        -3.8180342316627502e-01 5.9038990736007690e-01</leafValues></_>
    <_>
      <internalNodes>
        0 -1 23558 1076002944 1982931091 16863700 -747944559 -372728834
        867762853 153780235 -1078285569</internalNodes>
      <leafValues>
        -3.6422190070152283e-01 5.8407998085021973e-01</leafValues></_></weakClassifiers></stage9>
</opencv_storage>
