<?xml version="1.0"?>
<opencv_storage>
<stage6>
  <maxWeakCount>6</maxWeakCount>
  <stageThreshold>-2.1442222595214844e+00</stageThreshold>
  <weakClassifiers>
    <_>
      <internalNodes>
        0 -1 27268 -7603969 -3397 1363924991 -2128929 -3146753 -332887
        -83436545 -2106369</internalNodes>
      <leafValues>
        -8.7035667896270752e-01 6.8965516984462738e-02</leafValues></_>
    <_>
      <internalNodes>
        0 -1 22690 286064810 926614005 436584567 1406107615 -1410494466
        -1442890098 -634142981 -1615880193</internalNodes>
      <leafValues>
        -7.0820754766464233e-01 1.3417321443557739e-01</leafValues></_>
    <_>
      <internalNodes>
        0 -1 22208 -369295876 -52430859 -539492419 -35663403 -587269633
        -17116677 -637731585 -1084992099</internalNodes>
      <leafValues>
        -7.4605530500411987e-01 2.5468450784683228e-01</leafValues></_>
    <_>
      <internalNodes>
        0 -1 7783 -285285122 -271587426 -422400928 -18952966 -1280089091
        -292585041 1557812492 -67313697</internalNodes>
      <leafValues>
        -6.8094748258590698e-01 3.0927273631095886e-01</leafValues></_>
    <_>
      <internalNodes>
        0 -1 19099 -806682884 -271925042 -1070249509 1541066969
        -269554630 -1020792120 1997478719 1196097468</internalNodes>
      <leafValues>
        -7.0564240217208862e-01 3.4191852807998657e-01</leafValues></_>
    <_>
      <internalNodes>
        0 -1 26554 -622140767 -68437310 774783187 1595880375 -54541330
        -156043726 -1742282833 -1155814721</internalNodes>
      <leafValues>
        -4.2397281527519226e-01 5.5464208126068115e-01</leafValues></_></weakClassifiers></stage6>
</opencv_storage>
