<?xml version="1.0"?>
<opencv_storage>
<stage1>
  <maxWeakCount>5</maxWeakCount>
  <stageThreshold>-1.8970280885696411e+00</stageThreshold>
  <weakClassifiers>
    <_>
      <internalNodes>
        0 -1 5957 -1114113 -80392 -145293345 -2102786 -1311745 -2127169
        -74449921 -1025</internalNodes>
      <leafValues>
        -9.1176468133926392e-01 -4.4628098607063293e-02</leafValues></_>
    <_>
      <internalNodes>
        0 -1 12291 -2097153 -134282945 -1115693065 -1654803179
        -101203969 -7091329 -997197825 -720279627</internalNodes>
      <leafValues>
        -8.5586208105087280e-01 1.2964959442615509e-01</leafValues></_>
    <_>
      <internalNodes>
        0 -1 25888 1879343240 961610782 281194719 871568865 935764223
        -1784660312 1358088703 -1140910593</internalNodes>
      <leafValues>
        -7.0898789167404175e-01 4.5310488343238831e-01</leafValues></_>
    <_>
      <internalNodes>
        0 -1 19547 -135995393 -101066753 -149561355 -103686185
        -2010329137 -319174242 -905409137 34754447</internalNodes>
      <leafValues>
        -8.0535995960235596e-01 4.1765406727790833e-01</leafValues></_>
    <_>
      <internalNodes>
        0 -1 8219 -824260358 -424775974 -44305953 -6469556 -225550402
        -19211269 -77595713 -67163937</internalNodes>
      <leafValues>
        -7.0520406961441040e-01 4.4796043634414673e-01</leafValues></_></weakClassifiers></stage1>
</opencv_storage>
