<?xml version="1.0"?>
<opencv_storage>
<stage0>
  <maxWeakCount>6</maxWeakCount>
  <stageThreshold>-2.3505828380584717e+00</stageThreshold>
  <weakClassifiers>
    <_>
      <internalNodes>
        0 -1 12577 -20775937 -9636865 1532090751 -571418662 -122094593
        -1404709 -70059009 -5570562</internalNodes>
      <leafValues>
        -9.2923223972320557e-01 -1.6666667163372040e-01</leafValues></_>
    <_>
      <internalNodes>
        0 -1 102 -602865924 -47129096 -1864827913 -112853747 -1265304833
        -8656133 -194973697 -1085801669</internalNodes>
      <leafValues>
        -8.1147646903991699e-01 2.3486636579036713e-01</leafValues></_>
    <_>
      <internalNodes>
        0 -1 22002 -913782584 -37173860 -55059461 -150316320 -17114226
        -1084434402 -141099780 -1643620340</internalNodes>
      <leafValues>
        -8.4973871707916260e-01 3.0051234364509583e-01</leafValues></_>
    <_>
      <internalNodes>
        0 -1 25888 -73479038 -551632292 -971855109 -813759762 -99575042
        -1416689066 -1070562050 -126152708</internalNodes>
      <leafValues>
        -6.3819891214370728e-01 4.7726276516914368e-01</leafValues></_>
    <_>
      <internalNodes>
        0 -1 21688 1607990259 730191349 445905879 914694102 -67108875
        -526322699 -1970537523 -1970357361</internalNodes>
      <leafValues>
        -6.3638478517532349e-01 5.1936590671539307e-01</leafValues></_>
    <_>
      <internalNodes>
        0 -1 18885 -2166660 -539770862 -695926947 -1084590731
        -1353975052 -332099532 -3417092 -279275330</internalNodes>
      <leafValues>
        -6.8764519691467285e-01 4.5467671751976013e-01</leafValues></_></weakClassifiers></stage0>
</opencv_storage>
