<?xml version="1.0"?>
<opencv_storage>
<stage9>
  <maxWeakCount>6</maxWeakCount>
  <stageThreshold>-2.2140932083129883e+00</stageThreshold>
  <weakClassifiers>
    <_>
      <internalNodes>
        0 -1 6427 -5409 -8388641 433581518 -2 -203464193 -18875457
        -3538945 -1025</internalNodes>
      <leafValues>
        -9.0468335151672363e-01 -4.0972971916198730e-01</leafValues></_>
    <_>
      <internalNodes>
        0 -1 30610 -142639107 2099246007 2029861438 1069236219 -3140
        -9240069 719845616 -88081665</internalNodes>
      <leafValues>
        -6.9820636510848999e-01 9.5529220998287201e-02</leafValues></_>
    <_>
      <internalNodes>
        0 -1 7044 -1389485890 -525496594 416666111 2147067554 1941938651
        1795109487 1953233151 -33555613</internalNodes>
      <leafValues>
        -6.7772501707077026e-01 2.4669462442398071e-01</leafValues></_>
    <_>
      <internalNodes>
        0 -1 14528 -287324449 -287386388 2113138654 -1896943130
        -171707908 787880183 932172253 -816875011</internalNodes>
      <leafValues>
        -6.1484032869338989e-01 3.2631126046180725e-01</leafValues></_>
    <_>
      <internalNodes>
        0 -1 25184 1479576098 1504649297 983188588 1530351711 -660821835
        -1581734885 -1224960587 -1086389345</internalNodes>
      <leafValues>
        -4.8784926533699036e-01 4.4575265049934387e-01</leafValues></_>
    <_>
      <internalNodes>
        0 -1 31438 -12091628 964164470 -377230465 -170918017 1425254948
        -1416710049 1760295030 -30023834</internalNodes>
      <leafValues>
        -7.0554238557815552e-01 3.0106601119041443e-01</leafValues></_></weakClassifiers></stage9>
</opencv_storage>
