<?xml version="1.0"?>
<opencv_storage>
<stage7>
  <maxWeakCount>8</maxWeakCount>
  <stageThreshold>-2.3945050239562988e+00</stageThreshold>
  <weakClassifiers>
    <_>
      <internalNodes>
        0 -1 24368 -69 -526561 1335491071 -1149239841 -1280589825
        -68426758 -1060933 -67386437</internalNodes>
      <leafValues>
        -8.7455087900161743e-01 -6.7961163818836212e-02</leafValues></_>
    <_>
      <internalNodes>
        0 -1 26462 -37683980 -537013068 1340010143 -314108 -931612946
        -1198643031 1791168207 -1617750641</internalNodes>
      <leafValues>
        -6.3973397016525269e-01 1.3666585087776184e-01</leafValues></_>
    <_>
      <internalNodes>
        0 -1 24716 -4700442 2067455679 -65094585 -49819265 1056606958
        -338988803 372140621 -71769185</internalNodes>
      <leafValues>
        -4.8765632510185242e-01 3.3815160393714905e-01</leafValues></_>
    <_>
      <internalNodes>
        0 -1 27199 -650524488 1186379952 -1551573606 1203681994
        462092598 459242122 1032174500 848798188</internalNodes>
      <leafValues>
        -6.9250136613845825e-01 2.3865380883216858e-01</leafValues></_>
    <_>
      <internalNodes>
        0 -1 24528 -467766 -33588612 -659457 -708837537 -65586
        -142606484 -1799703047 -541383379</internalNodes>
      <leafValues>
        -3.9117476344108582e-01 4.4733983278274536e-01</leafValues></_>
    <_>
      <internalNodes>
        0 -1 25156 -825588086 -837903176 1808326123 -270909140
        -875396104 -1074086914 2046041532 606550310</internalNodes>
      <leafValues>
        -7.3307377099990845e-01 2.5252091884613037e-01</leafValues></_>
    <_>
      <internalNodes>
        0 -1 20874 -1599421209 -537962002 -609120054 -822157585
        -98326172 -79494493 -1819552772 -411936296</internalNodes>
      <leafValues>
        -6.8140226602554321e-01 2.4679176509380341e-01</leafValues></_>
    <_>
      <internalNodes>
        0 -1 25624 -837508624 -475365184 -216612164 1389793988
        -1698119246 1623863304 1375774396 284370159</internalNodes>
      <leafValues>
        -6.3696944713592529e-01 2.6627886295318604e-01</leafValues></_></weakClassifiers></stage7>
</opencv_storage>
