<?xml version="1.0"?>
<opencv_storage>
<stage8>
  <maxWeakCount>8</maxWeakCount>
  <stageThreshold>-1.5386989712715149e-01</stageThreshold>
  <weakClassifiers>
    <_>
      <internalNodes>
        0 -1 16813 1067954047 255274815 1103818695 268611350 216925995
        67243526 79725636 1056</internalNodes>
      <leafValues>
        -5.4871797561645508e-01 8.3951598405838013e-01</leafValues></_>
    <_>
      <internalNodes>
        0 -1 25450 1297472784 286743989 -1686290919 633026343 -555912120
        1008481613 -446341364 806842243</internalNodes>
      <leafValues>
        -2.6629537343978882e-01 6.3100105524063110e-01</leafValues></_>
    <_>
      <internalNodes>
        0 -1 2280 -872706337 -105943070 -1427210206 -574927318
        1476350462 1157557735 -805998013 -268437765</internalNodes>
      <leafValues>
        -3.7417763471603394e-01 5.5114144086837769e-01</leafValues></_>
    <_>
      <internalNodes>
        0 -1 15550 -1035517801 -898076926 150877951 101360710 283575035
        1508648456 157548767 -544503093</internalNodes>
      <leafValues>
        -4.1507768630981445e-01 5.3120344877243042e-01</leafValues></_>
    <_>
      <internalNodes>
        0 -1 27946 -737881968 -230026750 302006679 -1660878831
        -1224177502 -1290075135 1962942090 -618985077</internalNodes>
      <leafValues>
        -3.3450365066528320e-01 6.1811125278472900e-01</leafValues></_>
    <_>
      <internalNodes>
        0 -1 11512 -1069481713 -620739669 -1241513983 -259935845
        -2147439540 -520032235 -1559748565 1932206778</internalNodes>
      <leafValues>
        -5.8874130249023438e-01 3.5770165920257568e-01</leafValues></_>
    <_>
      <internalNodes>
        0 -1 26719 -786828256 288415745 721555584 19106064 -2139062095
        151193738 17334689 -1181007791</internalNodes>
      <leafValues>
        -5.4704862833023071e-01 3.7214097380638123e-01</leafValues></_>
    <_>
      <internalNodes>
        0 -1 26544 -805113728 -779763304 1258361529 -773783382
        -1844934004 -1320943480 50868911 -71324725</internalNodes>
      <leafValues>
        -3.3301243185997009e-01 6.9292157888412476e-01</leafValues></_></weakClassifiers></stage8>
</opencv_storage>
