<?xml version="1.0"?>
<opencv_storage>
<stage5>
  <maxWeakCount>7</maxWeakCount>
  <stageThreshold>-1.7935171127319336e+00</stageThreshold>
  <weakClassifiers>
    <_>
      <internalNodes>
        0 -1 3068 -547487745 -147336775 2098321405 -14706765 -637539585
        -71321153 -3147265 -4195841</internalNodes>
      <leafValues>
        -8.7235313653945923e-01 -4.5936394482851028e-02</leafValues></_>
    <_>
      <internalNodes>
        0 -1 26011 -555724606 -1689496 -2140809 -9759141 -1962223158
        -1149519288 -791363079 -1089774181</internalNodes>
      <leafValues>
        -6.5755337476730347e-01 1.2771973013877869e-01</leafValues></_>
    <_>
      <internalNodes>
        0 -1 24257 -199238631 1208365136 1092554749 1432494206 -84935947
        -1669866581 1840085628 -68181250</internalNodes>
      <leafValues>
        -5.7144713401794434e-01 3.0102866888046265e-01</leafValues></_>
    <_>
      <internalNodes>
        0 -1 26700 -1836887149 -298526216 1599690015 -806908586
        2118384562 1128500000 -1159564714 -1683019458</internalNodes>
      <leafValues>
        -5.7900416851043701e-01 3.2853621244430542e-01</leafValues></_>
    <_>
      <internalNodes>
        0 -1 15802 89902969 -1889590412 1411174901 -1898135083
        -604243399 -1362693197 -347867809 1326086947</internalNodes>
      <leafValues>
        -5.2840244770050049e-01 3.9345276355743408e-01</leafValues></_>
    <_>
      <internalNodes>
        0 -1 23598 -1130692903 -762398066 -1920522243 -582305464
        1120132856 1052695282 1540354012 1465332602</internalNodes>
      <leafValues>
        -6.1357647180557251e-01 3.2026302814483643e-01</leafValues></_>
    <_>
      <internalNodes>
        0 -1 23666 -39299400 -539012868 528693751 -1517463874 -91151714
        -1527086462 319743916 -1391809826</internalNodes>
      <leafValues>
        -5.4506224393844604e-01 3.7107065320014954e-01</leafValues></_></weakClassifiers></stage5>
</opencv_storage>
