<?xml version="1.0"?>
<opencv_storage>
<stage12>
  <maxWeakCount>10</maxWeakCount>
  <stageThreshold>-2.3430483341217041e+00</stageThreshold>
  <weakClassifiers>
    <_>
      <internalNodes>
        0 -1 25953 -2108433 -1156602209 1880560087 -536165 -744490309
        -691190517 -1291086977 -1</internalNodes>
      <leafValues>
        -8.7008345127105713e-01 -8.3032488822937012e-02</leafValues></_>
    <_>
      <internalNodes>
        0 -1 30825 -8688485 -412125319 -517230245 1930806253 -1084196198
        -82357431 1599050751 -80782197</internalNodes>
      <leafValues>
        -6.0000669956207275e-01 2.0680031180381775e-01</leafValues></_>
    <_>
      <internalNodes>
        0 -1 25038 -28314419 910947475 1243613 492833378 2130698685
        2057550837 749800429 1601694427</internalNodes>
      <leafValues>
        -5.2276837825775146e-01 2.5078240036964417e-01</leafValues></_>
    <_>
      <internalNodes>
        0 -1 21744 -1946482233 -1461035547 806444389 -55288067
        1911274483 1806857459 -1749399611 -337708050</internalNodes>
      <leafValues>
        -5.0824266672134399e-01 2.9056757688522339e-01</leafValues></_>
    <_>
      <internalNodes>
        0 -1 243 -1360876126 -829375634 -238186270 -867257716 -224397219
        1879171456 -1084234898 1377812006</internalNodes>
      <leafValues>
        -5.2584367990493774e-01 2.8579625487327576e-01</leafValues></_>
    <_>
      <internalNodes>
        0 -1 23513 489728936 -1127550280 -1222665733 -233114443
        596241330 916079480 1316740723 -929140488</internalNodes>
      <leafValues>
        -5.6044679880142212e-01 2.9490247368812561e-01</leafValues></_>
    <_>
      <internalNodes>
        0 -1 21000 1921749758 514544367 1582292722 1373492566 2026572949
        -665615412 -9830630 502576063</internalNodes>
      <leafValues>
        -4.6968844532966614e-01 3.3156275749206543e-01</leafValues></_>
    <_>
      <internalNodes>
        0 -1 25679 2108425176 -82128508 -998123496 -2127921588
        -1104089860 1616085323 -532813832 1331946220</internalNodes>
      <leafValues>
        -6.0967493057250977e-01 2.5861874222755432e-01</leafValues></_>
    <_>
      <internalNodes>
        0 -1 13955 -1980214566 312364252 -1651772454 -1611894322
        -348000495 -286012735 -1417489932 -1640297222</internalNodes>
      <leafValues>
        -4.8579144477844238e-01 3.2643982768058777e-01</leafValues></_>
    <_>
      <internalNodes>
        0 -1 27229 -391390992 -922902100 -1308388866 519342517 318179488
        -1298251383 336313011 425633606</internalNodes>
      <leafValues>
        -5.4490673542022705e-01 3.1230434775352478e-01</leafValues></_></weakClassifiers></stage12>
</opencv_storage>
