<?xml version="1.0"?>
<opencv_storage>
<stage1>
  <maxWeakCount>7</maxWeakCount>
  <stageThreshold>-1.9058207273483276e+00</stageThreshold>
  <weakClassifiers>
    <_>
      <internalNodes>
        0 -1 2946 -583991297 -15116809 -722280995 -10495187 -86327553
        -30245 -54788097 -2359329</internalNodes>
      <leafValues>
        -8.9776951074600220e-01 -1.2570355832576752e-01</leafValues></_>
    <_>
      <internalNodes>
        0 -1 16452 -66185611 -167910035 -153644801 -169878853 -535917057
        -174879763 -402812677 -544489077</internalNodes>
      <leafValues>
        -6.9519317150115967e-01 2.5927194952964783e-01</leafValues></_>
    <_>
      <internalNodes>
        0 -1 15928 216567007 -3438449 -543596548 -87155846 -336938404
        -823154097 -80741380 -14681314</internalNodes>
      <leafValues>
        -6.9504970312118530e-01 3.3676970005035400e-01</leafValues></_>
    <_>
      <internalNodes>
        0 -1 25780 1033997233 -835169771 202194323 19225940 -1411710981
        -669470509 -11931751 -842171397</internalNodes>
      <leafValues>
        -6.0038715600967407e-01 4.1273057460784912e-01</leafValues></_>
    <_>
      <internalNodes>
        0 -1 87 -12517378 -8859892 -1665346084 -7546360 -84901893
        -17120687 -4654345 -78618785</internalNodes>
      <leafValues>
        -7.1597135066986084e-01 3.7604638934135437e-01</leafValues></_>
    <_>
      <internalNodes>
        0 -1 24390 -1608140566 -24152020 -705728048 -673260834
        -1471174161 -389143886 4980896 1087310711</internalNodes>
      <leafValues>
        -7.8359276056289673e-01 3.2046794891357422e-01</leafValues></_>
    <_>
      <internalNodes>
        0 -1 25920 -891310872 2130665576 -2004297596 -1881288631
        803193851 1569439744 -2015233538 -1879343731</internalNodes>
      <leafValues>
        -5.7793307304382324e-01 4.3720579147338867e-01</leafValues></_></weakClassifiers></stage1>
</opencv_storage>
