<?xml version="1.0"?>
<opencv_storage>
<stage10>
  <maxWeakCount>8</maxWeakCount>
  <stageThreshold>-2.4497199058532715e+00</stageThreshold>
  <weakClassifiers>
    <_>
      <internalNodes>
        0 -1 27872 -211304245 -70548473 811094683 -646506941 -880361761
        -31948609 -807419905 -4221985</internalNodes>
      <leafValues>
        -8.8792145252227783e-01 -3.8095238804817200e-01</leafValues></_>
    <_>
      <internalNodes>
        0 -1 16125 -872538785 -111873 1532089855 1072666079 -223544705
        -2786441 -234883089 -11516985</internalNodes>
      <leafValues>
        -6.8090760707855225e-01 8.5171885788440704e-02</leafValues></_>
    <_>
      <internalNodes>
        0 -1 13503 1003123319 -9505842 -79890960 -74832 813870847
        -172258633 1206245095 1467307493</internalNodes>
      <leafValues>
        -7.5381058454513550e-01 1.9603894650936127e-01</leafValues></_>
    <_>
      <internalNodes>
        0 -1 274 -1192043525 -861265154 1583339451 -461575557 2122288639
        -277024319 2147187191 2024767287</internalNodes>
      <leafValues>
        -6.1380767822265625e-01 2.6938283443450928e-01</leafValues></_>
    <_>
      <internalNodes>
        0 -1 21903 -1343320536 -918102694 -1885885075 1541043482
        966381751 489231441 -2019644277 319401352</internalNodes>
      <leafValues>
        -8.0781131982803345e-01 2.4991041421890259e-01</leafValues></_>
    <_>
      <internalNodes>
        0 -1 27228 -659455790 -676217697 1822489195 -673775401
        -2035568962 -1895006726 603600574 -6584898</internalNodes>
      <leafValues>
        -3.8263538479804993e-01 5.4235678911209106e-01</leafValues></_>
    <_>
      <internalNodes>
        0 -1 28909 -138474148 894779743 -216835331 1068617819 -415335716
        2079304503 -360825240 821819130</internalNodes>
      <leafValues>
        -6.3935428857803345e-01 3.2448241114616394e-01</leafValues></_>
    <_>
      <internalNodes>
        0 -1 27302 -206978798 -224750990 268703539 -1754847833 -17766519
        -1825844829 1964025851 1470075659</internalNodes>
      <leafValues>
        -5.4507696628570557e-01 3.7561610341072083e-01</leafValues></_></weakClassifiers></stage10>
</opencv_storage>
