<?xml version="1.0"?>
<opencv_storage>
<stage6>
  <maxWeakCount>8</maxWeakCount>
  <stageThreshold>-1.8315951824188232e+00</stageThreshold>
  <weakClassifiers>
    <_>
      <internalNodes>
        0 -1 17915 -537538305 -134772559 352673277 -2142119 -2061573
        -4597062 -1619028481 -281089</internalNodes>
      <leafValues>
        -8.7753862142562866e-01 -1.8670076131820679e-01</leafValues></_>
    <_>
      <internalNodes>
        0 -1 26624 -774126898 -616054142 -240911621 -96612491
        -1632852310 -1350207057 -308497489 -10760193</internalNodes>
      <leafValues>
        -5.9424257278442383e-01 2.5072628259658813e-01</leafValues></_>
    <_>
      <internalNodes>
        0 -1 27234 -1162245480 -946311064 -1651655759 529289576
        1053797218 -2064695093 -1684013131 863869946</internalNodes>
      <leafValues>
        -7.1825575828552246e-01 2.1467013657093048e-01</leafValues></_>
    <_>
      <internalNodes>
        0 -1 21832 -42303344 -220297034 165731060 173758966 -1901709
        -1359361858 852512992 -1630729485</internalNodes>
      <leafValues>
        -7.2147279977798462e-01 2.2194756567478180e-01</leafValues></_>
    <_>
      <internalNodes>
        0 -1 20774 149384177 1877749733 140478709 244832753 -72625209
        -390270035 -1416893691 -1092683377</internalNodes>
      <leafValues>
        -5.6906843185424805e-01 3.1716018915176392e-01</leafValues></_>
    <_>
      <internalNodes>
        0 -1 17014 82495579 448568428 -1323379429 845992254 -1282408591
        -1426135019 61193204 -2067104769</internalNodes>
      <leafValues>
        -7.3001319169998169e-01 2.5406464934349060e-01</leafValues></_>
    <_>
      <internalNodes>
        0 -1 3227 581358024 -757278757 137787992 1597883090 -921923349
        330230443 1269551551 -805312513</internalNodes>
      <leafValues>
        -4.9954482913017273e-01 3.6999198794364929e-01</leafValues></_>
    <_>
      <internalNodes>
        0 -1 27978 -74992815 -502632117 269948056 1196250454 429587398
        -1304977352 421584246 -618718209</internalNodes>
      <leafValues>
        -5.7524138689041138e-01 3.1739667057991028e-01</leafValues></_></weakClassifiers></stage6>
</opencv_storage>
