<?xml version="1.0"?>
<opencv_storage>
<stage7>
  <maxWeakCount>7</maxWeakCount>
  <stageThreshold>-2.2712912559509277e+00</stageThreshold>
  <weakClassifiers>
    <_>
      <internalNodes>
        0 -1 24346 -69602561 -2121037 389535231 -539526753 -32506933
        -1447698 2077618175 -1025</internalNodes>
      <leafValues>
        -8.8026136159896851e-01 -1.7647059261798859e-01</leafValues></_>
    <_>
      <internalNodes>
        0 -1 12252 -16851137 -83953666 -1814562949 -123323786 -39851777
        -1162288642 2145383423 -152066849</internalNodes>
      <leafValues>
        -6.9503849744796753e-01 1.3268098235130310e-01</leafValues></_>
    <_>
      <internalNodes>
        0 -1 20080 -937514758 -1714680308 -1273586957 -765707818
        -1896100097 -902046699 431973119 -539280385</internalNodes>
      <leafValues>
        -5.2989912033081055e-01 4.0557661652565002e-01</leafValues></_>
    <_>
      <internalNodes>
        0 -1 12636 -2158737 -1078481153 -280928402 -1075924993
        -1075528865 -1485743369 -822744076 1158887159</internalNodes>
      <leafValues>
        -7.7548629045486450e-01 2.6878586411476135e-01</leafValues></_>
    <_>
      <internalNodes>
        0 -1 25848 1242309248 2036138222 495850137 1063194859 249078014
        149553579 643477996 -14736897</internalNodes>
      <leafValues>
        -5.5213505029678345e-01 3.8683763146400452e-01</leafValues></_>
    <_>
      <internalNodes>
        0 -1 23604 733487152 -268931860 -776087841 1532329981
        -1148191745 -291505677 -1346439425 118033919</internalNodes>
      <leafValues>
        -7.8290170431137085e-01 2.6320901513099670e-01</leafValues></_>
    <_>
      <internalNodes>
        0 -1 27330 -1155200856 -1086459726 59856565 420590961 -3546469
        78296298 1838133947 -1826907857</internalNodes>
      <leafValues>
        -5.2605199813842773e-01 4.0281850099563599e-01</leafValues></_></weakClassifiers></stage7>
</opencv_storage>
