<?xml version="1.0"?>
<opencv_storage>
<stage5>
  <maxWeakCount>5</maxWeakCount>
  <stageThreshold>-2.1981580257415771e+00</stageThreshold>
  <weakClassifiers>
    <_>
      <internalNodes>
        0 -1 14440 -16842753 -68098 -773863425 -17902882 -336855361
        -17065489 -105139217 -9217</internalNodes>
      <leafValues>
        -9.0934747457504272e-01 -4.0165629982948303e-01</leafValues></_>
    <_>
      <internalNodes>
        0 -1 28586 -787361504 -671622783 -259363331 -543739853
        -2063025686 -259597136 1061333695 -1156900961</internalNodes>
      <leafValues>
        -7.1784305572509766e-01 1.2965296208858490e-01</leafValues></_>
    <_>
      <internalNodes>
        0 -1 8608 -2016497729 1202515446 -137501185 -350302 -1140855937
        -33901581 1775991775 -537665554</internalNodes>
      <leafValues>
        -6.0429584980010986e-01 3.6848023533821106e-01</leafValues></_>
    <_>
      <internalNodes>
        0 -1 30588 2109732658 2006928222 -616170246 -51777 -1209028856
        -8662025 -46389216 -1364463770</internalNodes>
      <leafValues>
        -7.3622399568557739e-01 3.1249371170997620e-01</leafValues></_>
    <_>
      <internalNodes>
        0 -1 5156 2147415494 -537933473 -1072641560 -573650740 -19923714
        1322293699 1250084046 1329913288</internalNodes>
      <leafValues>
        -7.1091473102569580e-01 3.4057071805000305e-01</leafValues></_></weakClassifiers></stage5>
</opencv_storage>
