<?xml version="1.0"?>
<opencv_storage>
<stage7>
  <maxWeakCount>9</maxWeakCount>
  <stageThreshold>2.7979931235313416e-01</stageThreshold>
  <weakClassifiers>
    <_>
      <internalNodes>
        0 -1 24427 16777352 -721399544 4608021 1361249656 -1648580402
        -311886647 491290623 525464</internalNodes>
      <leafValues>
        6.8840578198432922e-02 8.6563134193420410e-01</leafValues></_>
    <_>
      <internalNodes>
        0 -1 5649 -1880969474 -877777786 -1098289 -101210624 -1349316869
        1204751783 -2064748805 -269523342</internalNodes>
      <leafValues>
        -2.4100869894027710e-01 6.7361348867416382e-01</leafValues></_>
    <_>
      <internalNodes>
        0 -1 23452 -1383412805 1292439569 1098994075 -400977523
        -1610570488 -1585213311 67195043 295109087</internalNodes>
      <leafValues>
        -5.0927680730819702e-01 4.6448519825935364e-01</leafValues></_>
    <_>
      <internalNodes>
        0 -1 19948 -970293040 -819263296 -1372816829 378339567
        -871775237 -2002728312 -1112610657 -1948546161</internalNodes>
      <leafValues>
        -3.6960941553115845e-01 5.9933763742446899e-01</leafValues></_>
    <_>
      <internalNodes>
        0 -1 25888 -796606264 407306632 1107431553 1934180875
        -1584750434 554565666 33730699 -73709397</internalNodes>
      <leafValues>
        -3.7030547857284546e-01 5.6831884384155273e-01</leafValues></_>
    <_>
      <internalNodes>
        0 -1 8953 -530677733 -197029543 269060108 -716095423 578816106
        -385843191 -670587673 -949812457</internalNodes>
      <leafValues>
        -5.4368573427200317e-01 3.7864843010902405e-01</leafValues></_>
    <_>
      <internalNodes>
        0 -1 21876 -2013230392 -1520418804 34897929 1527742603
        -1994293046 -1996419072 425296555 1328187435</internalNodes>
      <leafValues>
        -5.0579744577407837e-01 4.2216822504997253e-01</leafValues></_>
    <_>
      <internalNodes>
        0 -1 31509 -742131788 17268736 -1056849786 -1991884789
        -1564311136 1354984073 -1861320704 1835529971</internalNodes>
      <leafValues>
        -4.5929506421089172e-01 4.5777598023414612e-01</leafValues></_>
    <_>
      <internalNodes>
        0 -1 23468 -2145222520 -1877901152 272867056 -1758919624
        -1848788070 -2139224916 -1342076933 -207901043</internalNodes>
      <leafValues>
        -3.5177540779113770e-01 6.0579395294189453e-01</leafValues></_></weakClassifiers></stage7>
</opencv_storage>
