<?xml version="1.0"?>
<opencv_storage>
<stage9>
  <maxWeakCount>9</maxWeakCount>
  <stageThreshold>-2.0150833129882812e+00</stageThreshold>
  <weakClassifiers>
    <_>
      <internalNodes>
        0 -1 25129 -4458561 -2099361 -82096641 -1142948865 -49938693
        -2387717 -541328389 -12588133</internalNodes>
      <leafValues>
        -8.7216806411743164e-01 -1.5432098507881165e-01</leafValues></_>
    <_>
      <internalNodes>
        0 -1 22022 -37167928 -37353312 -1302285313 293410791 -78594055
        -1099523035 -1154680074 -1087236649</internalNodes>
      <leafValues>
        -6.9864732027053833e-01 -3.6317184567451477e-02</leafValues></_>
    <_>
      <internalNodes>
        0 -1 23594 -337741 -536896176 -1375920129 -1074309195 649723634
        2145271791 276755450 -73786437</internalNodes>
      <leafValues>
        -3.9026275277137756e-01 4.0283107757568359e-01</leafValues></_>
    <_>
      <internalNodes>
        0 -1 22611 1837088763 338863972 1279472122 250887910 -1890726985
        1857310623 1752372138 -1936638345</internalNodes>
      <leafValues>
        -6.3996189832687378e-01 2.5192967057228088e-01</leafValues></_>
    <_>
      <internalNodes>
        0 -1 16411 484449808 2111784322 416657907 507491829 503643740
        -1674690158 787270517 532486513</internalNodes>
      <leafValues>
        -7.2905790805816650e-01 2.4158374965190887e-01</leafValues></_>
    <_>
      <internalNodes>
        0 -1 23421 -849490450 -980356671 1505411532 -986328067
        -105331721 968592035 -1115320107 1567715381</internalNodes>
      <leafValues>
        -6.4933174848556519e-01 2.2470442950725555e-01</leafValues></_>
    <_>
      <internalNodes>
        0 -1 11310 -817563077 502986654 -1621098989 484074424 36306715
        -1897944817 -47188110 -1702971585</internalNodes>
      <leafValues>
        -5.2550160884857178e-01 2.9339751601219177e-01</leafValues></_>
    <_>
      <internalNodes>
        0 -1 24306 -321377808 1421953738 -1551708931 -170716930
        1629414143 1782018058 424590844 1663268469</internalNodes>
      <leafValues>
        -5.5211269855499268e-01 3.0328440666198730e-01</leafValues></_>
    <_>
      <internalNodes>
        0 -1 22730 -80150894 -537358368 -1788118657 -143722766
        -537200343 -14655644 -1216487535 -4485602</internalNodes>
      <leafValues>
        -3.7575864791870117e-01 4.5713388919830322e-01</leafValues></_></weakClassifiers></stage9>
</opencv_storage>
