<?xml version="1.0"?>
<opencv_storage>
<stage6>
  <maxWeakCount>7</maxWeakCount>
  <stageThreshold>2.1187959611415863e-01</stageThreshold>
  <weakClassifiers>
    <_>
      <internalNodes>
        0 -1 20452 934477220 1895382840 1979563519 938679601 -860164865
        -184582721 2278651 -2011167696</internalNodes>
      <leafValues>
        9.1074677184224129e-03 8.7076091766357422e-01</leafValues></_>
    <_>
      <internalNodes>
        0 -1 12636 -1697970149 1342091007 510922609 1258500023
        -1374650101 -1605339824 -1569353997 1930442211</internalNodes>
      <leafValues>
        -3.6142402887344360e-01 6.2141764163970947e-01</leafValues></_>
    <_>
      <internalNodes>
        0 -1 25853 -1879015230 1445531651 67129473 354222097 -1971273590
        671361210 546507003 1069252763</internalNodes>
      <leafValues>
        -4.4312769174575806e-01 5.2669119834899902e-01</leafValues></_>
    <_>
      <internalNodes>
        0 -1 29937 -206572800 -1878715983 562327971 1230061645
        -1807669234 950468614 -796397782 978321391</internalNodes>
      <leafValues>
        -4.7596079111099243e-01 4.7395819425582886e-01</leafValues></_>
    <_>
      <internalNodes>
        0 -1 12078 -2038384673 1279680662 1360925083 -1899993848
        -2000065893 -52674039 453606655 -1461736218</internalNodes>
      <leafValues>
        -4.6312913298606873e-01 4.9250471591949463e-01</leafValues></_>
    <_>
      <internalNodes>
        0 -1 27872 -2113765248 -720265206 1076887829 1465847937
        -1777817951 -527695848 -1576887093 -81844054</internalNodes>
      <leafValues>
        -4.1110572218894958e-01 6.0793429613113403e-01</leafValues></_>
    <_>
      <internalNodes>
        0 -1 24216 1342767129 1343340545 -457434859 1342257409
        1757972714 -1920181247 33868591 -1953595237</internalNodes>
      <leafValues>
        -4.0968683362007141e-01 5.3015476465225220e-01</leafValues></_></weakClassifiers></stage6>
</opencv_storage>
