<?xml version="1.0"?>
<opencv_storage>
<stage2>
  <maxWeakCount>6</maxWeakCount>
  <stageThreshold>-2.9162839055061340e-01</stageThreshold>
  <weakClassifiers>
    <_>
      <internalNodes>
        0 -1 20591 -268779649 -50648899 -1694760961 307246385
        -1929769217 -2064402510 -2002219846 -2013262848</internalNodes>
      <leafValues>
        -1.1746031790971756e-01 8.9633935689926147e-01</leafValues></_>
    <_>
      <internalNodes>
        0 -1 10211 1596055310 1393352460 -1073778933 2110771191
        179998154 76293725 67407867 17370635</internalNodes>
      <leafValues>
        -3.5966348648071289e-01 6.9021987915039062e-01</leafValues></_>
    <_>
      <internalNodes>
        0 -1 28298 -202375382 926105404 -1371555005 2143010419 -5602814
        775061334 -1566536918 714865614</internalNodes>
      <leafValues>
        -5.0287812948226929e-01 5.5147242546081543e-01</leafValues></_>
    <_>
      <internalNodes>
        0 -1 21832 33589440 319815680 33642907 1427833553 -750745383
        -1885437790 209721595 -1621391329</internalNodes>
      <leafValues>
        -3.9997020363807678e-01 6.9700640439987183e-01</leafValues></_>
    <_>
      <internalNodes>
        0 -1 4278 -431046450 -799375310 16957833 -553287600 -1475720994
        -1954021234 -1073034897 1408976487</internalNodes>
      <leafValues>
        -5.5361086130142212e-01 4.9120467901229858e-01</leafValues></_>
    <_>
      <internalNodes>
        0 -1 27298 -242184032 -704118784 -2143289156 1896698953
        -1878884200 -2111241088 39595 -1280337493</internalNodes>
      <leafValues>
        -4.6882167458534241e-01 6.4020740985870361e-01</leafValues></_></weakClassifiers></stage2>
</opencv_storage>
