<?xml version="1.0"?>
<opencv_storage>
<stage11>
  <maxWeakCount>8</maxWeakCount>
  <stageThreshold>-2.1623120307922363e+00</stageThreshold>
  <weakClassifiers>
    <_>
      <internalNodes>
        0 -1 24296 -687093085 -147072365 1352355903 -20033 -134564098
        -604369234 1872749567 -1</internalNodes>
      <leafValues>
        -8.8133496046066284e-01 -3.1141200661659241e-01</leafValues></_>
    <_>
      <internalNodes>
        0 -1 15467 -1092698369 -110369 1323218653 1526616258 -472663041
        -1614884213 -270546465 -1074983475</internalNodes>
      <leafValues>
        -7.0470184087753296e-01 1.7389656975865364e-02</leafValues></_>
    <_>
      <internalNodes>
        0 -1 16430 -179240980 -33555999 -2117153 393565493 -1049036609
        -738227633 -1810442443 -1384499907</internalNodes>
      <leafValues>
        -6.7414522171020508e-01 2.2615131735801697e-01</leafValues></_>
    <_>
      <internalNodes>
        0 -1 27298 -203390968 -686325236 2069773384 1035424639
        -1774675522 1057834474 1595864831 -1073774673</internalNodes>
      <leafValues>
        -4.8180040717124939e-01 3.9271661639213562e-01</leafValues></_>
    <_>
      <internalNodes>
        0 -1 8858 -840457425 1856940078 1360707872 -17111280 -1823261825
        -620760949 -245632169 -269484318</internalNodes>
      <leafValues>
        -6.2396568059921265e-01 3.5605385899543762e-01</leafValues></_>
    <_>
      <internalNodes>
        0 -1 27907 -671029080 -880690517 -1346744713 1465603199
        -1079854870 377286774 -743051265 -605059393</internalNodes>
      <leafValues>
        -4.0083187818527222e-01 4.9177891016006470e-01</leafValues></_>
    <_>
      <internalNodes>
        0 -1 21880 1519324298 -2001500061 261952734 -1308641851
        -1431634241 -959529989 -899941385 -1083232297</internalNodes>
      <leafValues>
        -4.8031717538833618e-01 4.2080539464950562e-01</leafValues></_>
    <_>
      <internalNodes>
        0 -1 22748 2132541048 -1932777474 2035908061 819658192
        -564780237 -1124115781 996111667 429530623</internalNodes>
      <leafValues>
        -6.7167502641677856e-01 3.0997148156166077e-01</leafValues></_></weakClassifiers></stage11>
</opencv_storage>
