<?xml version="1.0"?>
<opencv_storage>
<stage4>
  <maxWeakCount>7</maxWeakCount>
  <stageThreshold>-2.1405665874481201e+00</stageThreshold>
  <weakClassifiers>
    <_>
      <internalNodes>
        0 -1 4325 1572593143 -247992201 -601910025 -14691275 -610563841
        -2215429 -276824577 -6291569</internalNodes>
      <leafValues>
        -8.8871669769287109e-01 -2.4022346735000610e-01</leafValues></_>
    <_>
      <internalNodes>
        0 -1 25078 -806101507 999892825 52240123 802630366 1324924400
        -1910164995 -285463048 -17301586</internalNodes>
      <leafValues>
        -7.3741155862808228e-01 1.7335205338895321e-03</leafValues></_>
    <_>
      <internalNodes>
        0 -1 19943 -1887236405 -1730886162 -274747433 500627391
        -1430274818 -1359496516 -82985636 -568999938</internalNodes>
      <leafValues>
        -5.8257806301116943e-01 2.8143778443336487e-01</leafValues></_>
    <_>
      <internalNodes>
        0 -1 23524 45034201 233771410 934680318 536828670 -1080508432
        2139826351 -86312202 179863025</internalNodes>
      <leafValues>
        -7.8597897291183472e-01 2.2182342410087585e-01</leafValues></_>
    <_>
      <internalNodes>
        0 -1 25888 -91043838 -415348676 -1039486758 1299605230 -32203781
        -1464131482 -1072002828 -130348172</internalNodes>
      <leafValues>
        -6.5189641714096069e-01 3.1753459572792053e-01</leafValues></_>
    <_>
      <internalNodes>
        0 -1 13125 -1808344905 -676209289 -1300234249 -150865865
        -22089987 -8716289 -2040529409 -854852093</internalNodes>
      <leafValues>
        -4.2166095972061157e-01 5.0960814952850342e-01</leafValues></_>
    <_>
      <internalNodes>
        0 -1 20125 -51855222 -1349855857 1531021499 -36933378 708823713
        -83892065 -101809158 -609703684</internalNodes>
      <leafValues>
        -6.4431220293045044e-01 3.2451507449150085e-01</leafValues></_></weakClassifiers></stage4>
</opencv_storage>
