<?xml version="1.0"?>
<opencv_storage>
<stage4>
  <maxWeakCount>7</maxWeakCount>
  <stageThreshold>-1.9517914056777954e+00</stageThreshold>
  <weakClassifiers>
    <_>
      <internalNodes>
        0 -1 11995 -1095827457 -68098 -174264833 -1073945616 -1419527169
        -1677991777 -69214721 -5633</internalNodes>
      <leafValues>
        -9.3284517526626587e-01 -4.6187049150466919e-01</leafValues></_>
    <_>
      <internalNodes>
        0 -1 25192 -683110246 -617925648 1041571197 -542656713
        -1360138609 -85234389 -1351689253 -1085562977</internalNodes>
      <leafValues>
        -6.9352728128433228e-01 2.0575435459613800e-01</leafValues></_>
    <_>
      <internalNodes>
        0 -1 4881 -285218049 -1228410886 1807469608 -822186904
        -638881025 -69471301 -644124713 -69765949</internalNodes>
      <leafValues>
        -7.0746380090713501e-01 2.9785138368606567e-01</leafValues></_>
    <_>
      <internalNodes>
        0 -1 25853 -133132128 1598399592 84478455 1294139629 -443417910
        -804321124 350215615 334438651</internalNodes>
      <leafValues>
        -7.1283888816833496e-01 3.1551602482795715e-01</leafValues></_>
    <_>
      <internalNodes>
        0 -1 18764 -174129665 -207690273 -94371841 318496757 -725692818
        -1497464339 -2064071169 -1129783812</internalNodes>
      <leafValues>
        -6.4552569389343262e-01 4.0213450789451599e-01</leafValues></_>
    <_>
      <internalNodes>
        0 -1 25336 443025450 -276424282 1538402227 2146774015
        -1144087874 196827795 1440723935 -1751122945</internalNodes>
      <leafValues>
        -5.8672392368316650e-01 4.3802452087402344e-01</leafValues></_>
    <_>
      <internalNodes>
        0 -1 14218 -1165355790 -11732250 1962860503 1744655845
        1270608895 -1409816145 -1683164553 -891323393</internalNodes>
      <leafValues>
        -6.0702413320541382e-01 4.2253646254539490e-01</leafValues></_></weakClassifiers></stage4>
</opencv_storage>
