<?xml version="1.0"?>
<opencv_storage>
<stage15>
  <maxWeakCount>9</maxWeakCount>
  <stageThreshold>-2.0041978359222412e+00</stageThreshold>
  <weakClassifiers>
    <_>
      <internalNodes>
        0 -1 18977 -564532993 -77887329 421527039 1571667423 -1413240577
        -1081360721 -1884308481 -541073921</internalNodes>
      <leafValues>
        -8.7927073240280151e-01 -2.7272728085517883e-01</leafValues></_>
    <_>
      <internalNodes>
        0 -1 25784 -363729229 -745953120 -551565833 -1039069667 -3888248
        -537187441 -37827173 -74580053</internalNodes>
      <leafValues>
        -6.5960562229156494e-01 6.4055852591991425e-02</leafValues></_>
    <_>
      <internalNodes>
        0 -1 12408 721331775 -1393756466 697012464 1560207838 -102262593
        2067314938 -307398476 1422168500</internalNodes>
      <leafValues>
        -7.8348588943481445e-01 1.5813347697257996e-01</leafValues></_>
    <_>
      <internalNodes>
        0 -1 31093 -67108873 -4227083 -37092 1006202876 -80 -1217028098
        985448384 -1679821841</internalNodes>
      <leafValues>
        -3.8358879089355469e-01 4.5291444659233093e-01</leafValues></_>
    <_>
      <internalNodes>
        0 -1 20873 304582738 415466586 -715664609 416277979 2024733366
        -55584441 -828705900 -1651515621</internalNodes>
      <leafValues>
        -4.7083356976509094e-01 4.0008440613746643e-01</leafValues></_>
    <_>
      <internalNodes>
        0 -1 22052 1459749024 -550229148 286482615 1498931439
        -1312859285 -1441904307 1629133722 -977806225</internalNodes>
      <leafValues>
        -4.8205703496932983e-01 3.5885170102119446e-01</leafValues></_>
    <_>
      <internalNodes>
        0 -1 23558 -803145048 -1684053872 207519431 1474236831
        -1123342961 937167616 2108668657 -614528834</internalNodes>
      <leafValues>
        -4.3613201379776001e-01 4.1688799858093262e-01</leafValues></_>
    <_>
      <internalNodes>
        0 -1 22009 -1465776112 -1360211700 -443048961 1490571993
        -1718595331 -1986049618 -1224005028 329079800</internalNodes>
      <leafValues>
        -8.2995647192001343e-01 2.3292438685894012e-01</leafValues></_>
    <_>
      <internalNodes>
        0 -1 26692 -224288632 -640699414 1593390377 -1175853801
        -1142387762 -876248087 -720866825 -1683269205</internalNodes>
      <leafValues>
        -4.5637524127960205e-01 4.1091814637184143e-01</leafValues></_></weakClassifiers></stage15>
</opencv_storage>
