<?xml version="1.0"?>
<opencv_storage>
<stage13>
  <maxWeakCount>8</maxWeakCount>
  <stageThreshold>-2.0529680252075195e+00</stageThreshold>
  <weakClassifiers>
    <_>
      <internalNodes>
        0 -1 3173 -131073 -11151533 -552257537 -46402675 -92668161
        -271873 1543093759 -1093</internalNodes>
      <leafValues>
        -8.6712145805358887e-01 -6.5040647983551025e-02</leafValues></_>
    <_>
      <internalNodes>
        0 -1 25233 -4484773 515292027 -7717069 1542713155 2145643475
        -150226618 -676722369 -2110113</internalNodes>
      <leafValues>
        -5.8222734928131104e-01 1.6780135035514832e-01</leafValues></_>
    <_>
      <internalNodes>
        0 -1 25152 751496382 -1668418932 -983897375 -185928871
        -1096028185 -447959420 269850356 -1148325540</internalNodes>
      <leafValues>
        -5.2540689706802368e-01 2.5455799698829651e-01</leafValues></_>
    <_>
      <internalNodes>
        0 -1 13837 -1788033302 -286269337 -648802284 -92482562
        -741131947 1187984290 -43790024 -545277161</internalNodes>
      <leafValues>
        -7.6801472902297974e-01 1.8584577739238739e-01</leafValues></_>
    <_>
      <internalNodes>
        0 -1 24462 -1171988225 -1599165701 2069265297 -1078983516
        -311590913 -2102480197 -1283490582 1599026264</internalNodes>
      <leafValues>
        -4.9892631173133850e-01 3.1391352415084839e-01</leafValues></_>
    <_>
      <internalNodes>
        0 -1 27263 -235616022 -657711441 -1313315200 2026397309
        -1168871368 1726882379 391379874 -1078256982</internalNodes>
      <leafValues>
        -4.0715333819389343e-01 3.6658468842506409e-01</leafValues></_>
    <_>
      <internalNodes>
        0 -1 29181 -310384445 -337182958 387019063 -826567722
        -1149763852 -15202592 2065831165 -638232717</internalNodes>
      <leafValues>
        -4.3425852060317993e-01 3.6970028281211853e-01</leafValues></_>
    <_>
      <internalNodes>
        0 -1 17266 1888763704 -2220290 -653003777 -47295825 2063793999
        -1187712118 -258933059 -2029336360</internalNodes>
      <leafValues>
        -4.7742286324501038e-01 3.2681688666343689e-01</leafValues></_></weakClassifiers></stage13>
</opencv_storage>
