<?xml version="1.0"?>
<opencv_storage>
<stage4>
  <maxWeakCount>7</maxWeakCount>
  <stageThreshold>3.1554666161537170e-01</stageThreshold>
  <weakClassifiers>
    <_>
      <internalNodes>
        0 -1 4738 -823267651 1698754313 -521339249 83887108 -312135745
        121900868 340045295 1141112875</internalNodes>
      <leafValues>
        5.1409617066383362e-02 8.7434017658233643e-01</leafValues></_>
    <_>
      <internalNodes>
        0 -1 28882 -704667892 828317535 -1141142113 386379035 -421737088
        1947573519 -97153364 955512619</internalNodes>
      <leafValues>
        -1.9380570948123932e-01 7.4526494741439819e-01</leafValues></_>
    <_>
      <internalNodes>
        0 -1 5110 -923614497 -109580690 -1963195898 -129841032
        -437186325 -722481282 -322089374 -557882593</internalNodes>
      <leafValues>
        -4.1901347041130066e-01 5.8933067321777344e-01</leafValues></_>
    <_>
      <internalNodes>
        0 -1 2911 -661739010 -739458940 -2147483557 1069719578
        -1195341685 2059927576 143169935 -345546637</internalNodes>
      <leafValues>
        -4.6644625067710876e-01 4.9536907672882080e-01</leafValues></_>
    <_>
      <internalNodes>
        0 -1 24346 144834688 806552192 269634777 1594294415 6340746
        -1879047348 251706347 -1081407301</internalNodes>
      <leafValues>
        -4.3464851379394531e-01 5.5122762918472290e-01</leafValues></_>
    <_>
      <internalNodes>
        0 -1 12642 -745536183 -103263903 2129 -787408885 1660455437
        -505376648 -22938713 1933770927</internalNodes>
      <leafValues>
        -5.5606216192245483e-01 4.1519263386726379e-01</leafValues></_>
    <_>
      <internalNodes>
        0 -1 25920 -800288632 2041651217 528461 -7503723 -2147380278
        1476395018 285512635 -1081145201</internalNodes>
      <leafValues>
        -3.8970339298248291e-01 6.2982761859893799e-01</leafValues></_></weakClassifiers></stage4>
</opencv_storage>
