<?xml version="1.0"?>
<opencv_storage>
<stage2>
  <maxWeakCount>7</maxWeakCount>
  <stageThreshold>-2.1542716026306152e+00</stageThreshold>
  <weakClassifiers>
    <_>
      <internalNodes>
        0 -1 23478 -111476737 -78512898 286391807 -13299457 -118817029
        -85355846 -81003521 -3141</internalNodes>
      <leafValues>
        -8.7880599498748779e-01 8.6505189538002014e-02</leafValues></_>
    <_>
      <internalNodes>
        0 -1 23434 -596386309 1517367473 943413742 2110074350 997587451
        1525960957 720060350 -1107838241</internalNodes>
      <leafValues>
        -7.2236853837966919e-01 1.3990707695484161e-01</leafValues></_>
    <_>
      <internalNodes>
        0 -1 19482 -20128516 -394504 -40435722 -606897708 -827528732
        -370153300 -34544401 -274467375</internalNodes>
      <leafValues>
        -6.9883781671524048e-01 2.7908039093017578e-01</leafValues></_>
    <_>
      <internalNodes>
        0 -1 21739 465260881 726622069 2109725678 -2071167794 -76087435
        -2104143241 -74290212 -290652466</internalNodes>
      <leafValues>
        -7.9939389228820801e-01 2.6888564229011536e-01</leafValues></_>
    <_>
      <internalNodes>
        0 -1 29724 -15212912 -387055502 -1273184049 1837063804
        -1282532736 -250931087 2047986418 -1961156865</internalNodes>
      <leafValues>
        -5.8748054504394531e-01 4.0013757348060608e-01</leafValues></_>
    <_>
      <internalNodes>
        0 -1 23563 164751867 2138034571 424539135 1063157567 727416731
        1000054797 801106901 1063132106</internalNodes>
      <leafValues>
        -6.4424401521682739e-01 3.6240845918655396e-01</leafValues></_>
    <_>
      <internalNodes>
        0 -1 18518 469916784 1550488572 -871048717 1902107615
        -1338990990 -1474338568 606371573 1040030453</internalNodes>
      <leafValues>
        -6.6049385070800781e-01 3.3666533231735229e-01</leafValues></_></weakClassifiers></stage2>
</opencv_storage>
