<?xml version="1.0"?>
<opencv_storage>
<stage10>
  <maxWeakCount>10</maxWeakCount>
  <stageThreshold>-2.2009897232055664e+00</stageThreshold>
  <weakClassifiers>
    <_>
      <internalNodes>
        0 -1 25225 -16523825 -2130817 -1353900097 -134497281 -115360769
        -1087434577 -543687681 -8481</internalNodes>
      <leafValues>
        -8.7360143661499023e-01 -2.2666667401790619e-01</leafValues></_>
    <_>
      <internalNodes>
        0 -1 27311 -13009549 1666454910 590685823 -612892673 -90332174
        -1713979462 -612271669 -270559841</internalNodes>
      <leafValues>
        -6.1485069990158081e-01 1.2768340110778809e-01</leafValues></_>
    <_>
      <internalNodes>
        0 -1 25188 -796286232 -829520658 -112189192 -806115344 -681537
        -1101033421 -59048196 -640165422</internalNodes>
      <leafValues>
        -5.3511005640029907e-01 2.5352734327316284e-01</leafValues></_>
    <_>
      <internalNodes>
        0 -1 22738 -798032195 -527443332 -805292054 -137429250
        -1928467617 -1631639105 -501980991 -259032451</internalNodes>
      <leafValues>
        -5.4871875047683716e-01 2.8362697362899780e-01</leafValues></_>
    <_>
      <internalNodes>
        0 -1 22401 1039759535 -1079672427 1992284029 934557776 812505975
        -1362420849 687840086 783872906</internalNodes>
      <leafValues>
        -4.6511083841323853e-01 3.7503966689109802e-01</leafValues></_>
    <_>
      <internalNodes>
        0 -1 17510 -67177004 -4426960 -512356019 -675527769 -101122371
        -85898 -303500290 -41680050</internalNodes>
      <leafValues>
        -7.2484630346298218e-01 2.1487617492675781e-01</leafValues></_>
    <_>
      <internalNodes>
        0 -1 22541 -131675500 -10995490 -1739949377 -1227746472
        -502625904 857377201 -1344580752 320542780</internalNodes>
      <leafValues>
        -5.7161694765090942e-01 2.7766513824462891e-01</leafValues></_>
    <_>
      <internalNodes>
        0 -1 25848 -13305602 -80818484 -16858055 -39378 -279527745
        -1686663322 -1762771737 -875675972</internalNodes>
      <leafValues>
        -4.0125268697738647e-01 4.0964049100875854e-01</leafValues></_>
    <_>
      <internalNodes>
        0 -1 27298 -583427686 -904634413 -1079312385 1715219961
        1862264524 -671090889 358006781 -6417922</internalNodes>
      <leafValues>
        -3.8076037168502808e-01 4.5517045259475708e-01</leafValues></_>
    <_>
      <internalNodes>
        0 -1 20041 221841579 -537084457 -1358970945 -847438403 -33554716
        268427215 -318898306 -34219061</internalNodes>
      <leafValues>
        -3.7408486008644104e-01 4.8560127615928650e-01</leafValues></_></weakClassifiers></stage10>
</opencv_storage>
