<?xml version="1.0"?>
<opencv_storage>
<stage13>
  <maxWeakCount>8</maxWeakCount>
  <stageThreshold>-2.0781505107879639e+00</stageThreshold>
  <weakClassifiers>
    <_>
      <internalNodes>
        0 -1 20857 -615779585 -679797829 240352991 -524289 -1145308433
        -269485569 -890782721 -1064961</internalNodes>
      <leafValues>
        -8.7156790494918823e-01 -1.7283950746059418e-01</leafValues></_>
    <_>
      <internalNodes>
        0 -1 15719 467615615 -1176531873 -1716665993 -539118187
        -1200759877 -1618290537 -1360156169 -667906339</internalNodes>
      <leafValues>
        -7.8064328432083130e-01 -8.1886075437068939e-02</leafValues></_>
    <_>
      <internalNodes>
        0 -1 13490 -50335173 -858880994 -392850179 -865281334
        -1162086721 -759237635 -1122111489 1861195100</internalNodes>
      <leafValues>
        -6.0909169912338257e-01 2.3515306413173676e-01</leafValues></_>
    <_>
      <internalNodes>
        0 -1 21999 -1413331926 -503616404 1736423381 1366261500
        -69601449 -1484887585 -1173619969 390746365</internalNodes>
      <leafValues>
        -7.3811066150665283e-01 2.2162529826164246e-01</leafValues></_>
    <_>
      <internalNodes>
        0 -1 19708 -889399685 -83952006 1859118110 -2035483905
        2132475378 -1162280050 454622146 172649951</internalNodes>
      <leafValues>
        -5.6270509958267212e-01 3.2862463593482971e-01</leafValues></_>
    <_>
      <internalNodes>
        0 -1 27814 -833109815 -766876709 -816390181 -1777258117
        767456124 -207901774 -691372034 1924294451</internalNodes>
      <leafValues>
        -6.3609188795089722e-01 2.9145449399948120e-01</leafValues></_>
    <_>
      <internalNodes>
        0 -1 6929 -429120258 837771914 1431691487 -235279774 1887148535
        -739540561 -1072012891 -33587330</internalNodes>
      <leafValues>
        -5.8801198005676270e-01 3.2064202427864075e-01</leafValues></_>
    <_>
      <internalNodes>
        0 -1 18851 -865407750 -611415592 -2100638994 -789835448
        -1018000645 -959544884 -2112107890 -1965324070</internalNodes>
      <leafValues>
        -4.6120476722717285e-01 4.3946579098701477e-01</leafValues></_></weakClassifiers></stage13>
</opencv_storage>
