<?xml version="1.0"?>
<opencv_storage>
<stage15>
  <maxWeakCount>11</maxWeakCount>
  <stageThreshold>-2.4827318191528320e+00</stageThreshold>
  <weakClassifiers>
    <_>
      <internalNodes>
        0 -1 4650 -136871937 1394545137 1901925751 -48926371 -2127988549
        -605740998 -610034693 -315217</internalNodes>
      <leafValues>
        -8.7239080667495728e-01 1.2820513546466827e-01</leafValues></_>
    <_>
      <internalNodes>
        0 -1 15852 1403623323 -229240219 425431382 1542427415
        -1550864069 -1424981852 -680070209 -1346905309</internalNodes>
      <leafValues>
        -6.1258941888809204e-01 1.6328540444374084e-01</leafValues></_>
    <_>
      <internalNodes>
        0 -1 27975 -611140333 -834625306 285442238 1331524744 -349843722
        663652062 -1803415297 -549512342</internalNodes>
      <leafValues>
        -3.9126810431480408e-01 4.0450313687324524e-01</leafValues></_>
    <_>
      <internalNodes>
        0 -1 25929 1428372500 -690035761 319489463 835684750 -1702631243
        -1428803403 570415609 -2096389527</internalNodes>
      <leafValues>
        -4.4684633612632751e-01 3.3810594677925110e-01</leafValues></_>
    <_>
      <internalNodes>
        0 -1 26510 -1140861272 -291624850 -2087618097 -1710317108
        864665726 74158278 1586989286 796377504</internalNodes>
      <leafValues>
        -5.7543975114822388e-01 2.7297350764274597e-01</leafValues></_>
    <_>
      <internalNodes>
        0 -1 870 1106332972 1601175654 -719649672 413139231 -2117858482
        -301825902 1489050236 143903471</internalNodes>
      <leafValues>
        -5.9962069988250732e-01 2.6912459731101990e-01</leafValues></_>
    <_>
      <internalNodes>
        0 -1 15688 -1789776665 -917663677 -1811883944 1573983395
        -1197653909 29401739 1133622417 -307654469</internalNodes>
      <leafValues>
        -4.8491245508193970e-01 3.4421533346176147e-01</leafValues></_>
    <_>
      <internalNodes>
        0 -1 21432 886995248 1569837132 380080877 1026951496 -123617631
        -339115051 -1874802067 148636416</internalNodes>
      <leafValues>
        -6.3714021444320679e-01 2.6383289694786072e-01</leafValues></_>
    <_>
      <internalNodes>
        0 -1 23440 -1729121145 1887584421 66862 -330739636 -796761454
        1939526531 -1282563801 -50811905</internalNodes>
      <leafValues>
        -4.7102171182632446e-01 3.5022634267807007e-01</leafValues></_>
    <_>
      <internalNodes>
        0 -1 23630 -581928711 -241647472 1090601054 -687620075
        -1855440896 546439698 402832012 -1078823430</internalNodes>
      <leafValues>
        -4.6301439404487610e-01 3.8527572154998779e-01</leafValues></_>
    <_>
      <internalNodes>
        0 -1 32415 2019028170 1463263089 -16945427 -1749026883
        1399610879 -1711579783 -189092418 -1246261941</internalNodes>
      <leafValues>
        -3.4226778149604797e-01 5.3945457935333252e-01</leafValues></_></weakClassifiers></stage15>
</opencv_storage>
