<?xml version="1.0"?>
<opencv_storage>
<stage0>
  <maxWeakCount>4</maxWeakCount>
  <stageThreshold>-2.2711496353149414e+00</stageThreshold>
  <weakClassifiers>
    <_>
      <internalNodes>
        0 -1 5957 -1114113 -1121830 -2951169 -2110998 -68420609 -7349569
        -6557697 -8193</internalNodes>
      <leafValues>
        -9.1874706745147705e-01 1.2773722410202026e-01</leafValues></_>
    <_>
      <internalNodes>
        0 -1 17606 -172294145 -136315395 -774906369 -749612587
        -174402561 -1112802885 -2132878081 -1461136131</internalNodes>
      <leafValues>
        -8.7470752000808716e-01 3.1795111298561096e-01</leafValues></_>
    <_>
      <internalNodes>
        0 -1 7045 -278212866 -1129826 -480247809 -270718688 -68449281
        -90212194 -134513665 -33591529</internalNodes>
      <leafValues>
        -8.0569618940353394e-01 4.0794062614440918e-01</leafValues></_>
    <_>
      <internalNodes>
        0 -1 21563 -33620485 -41949903 -17573411 -682009712 -857953029
        -200279430 -1741104389 -1677682536</internalNodes>
      <leafValues>
        -8.6465746164321899e-01 3.9218714833259583e-01</leafValues></_></weakClassifiers></stage0>
</opencv_storage>
