<?xml version="1.0"?>
<opencv_storage>
<stage11>
  <maxWeakCount>68</maxWeakCount>
  <stageThreshold>-1.0102238655090332e+00</stageThreshold>
  <weakClassifiers>
    <_>
      <internalNodes>
        0 -1 12695 -1.1028879880905151e-01</internalNodes>
      <leafValues>
        6.7929202318191528e-01 2.9590585827827454e-01</leafValues></_>
    <_>
      <internalNodes>
        0 -1 239 1.0494317393749952e-03</internalNodes>
      <leafValues>
        1.5746188163757324e-01 -3.7342196702957153e-01</leafValues></_>
    <_>
      <internalNodes>
        0 -1 121 -7.2431098669767380e-04</internalNodes>
      <leafValues>
        -4.1984918713569641e-01 8.4616743028163910e-02</leafValues></_>
    <_>
      <internalNodes>
        0 -1 177092 1.7733016284182668e-04</internalNodes>
      <leafValues>
        -1.6884125769138336e-01 2.2626698017120361e-01</leafValues></_>
    <_>
      <internalNodes>
        0 -1 92707 -1.5045394003391266e-01</internalNodes>
      <leafValues>
        2.3786832392215729e-01 -1.5990795195102692e-01</leafValues></_>
    <_>
      <internalNodes>
        0 -1 139297 1.2394589248287957e-05</internalNodes>
      <leafValues>
        -1.8776567280292511e-01 1.7473965883255005e-01</leafValues></_>
    <_>
      <internalNodes>
        0 -1 248783 2.8839288279414177e-03</internalNodes>
      <leafValues>
        -7.5736373662948608e-02 5.1549649238586426e-01</leafValues></_>
    <_>
      <internalNodes>
        0 -1 260735 -2.8955373636563309e-05</internalNodes>
      <leafValues>
        2.2501438856124878e-01 -1.3104587793350220e-01</leafValues></_>
    <_>
      <internalNodes>
        0 -1 260063 4.9804430454969406e-03</internalNodes>
      <leafValues>
        -1.0947325825691223e-01 3.4895968437194824e-01</leafValues></_>
    <_>
      <internalNodes>
        0 -1 16763 8.1707746721804142e-04</internalNodes>
      <leafValues>
        7.3061190545558929e-02 -4.9973809719085693e-01</leafValues></_>
    <_>
      <internalNodes>
        0 -1 5522 1.8815394490957260e-02</internalNodes>
      <leafValues>
        -1.1455553025007248e-01 3.0855542421340942e-01</leafValues></_>
    <_>
      <internalNodes>
        0 -1 253456 -3.1275062356144190e-03</internalNodes>
      <leafValues>
        2.9256379604339600e-01 -1.0504142940044403e-01</leafValues></_>
    <_>
      <internalNodes>
        0 -1 152946 -1.3542175292968750e-01</internalNodes>
      <leafValues>
        3.9354348182678223e-01 -8.8502734899520874e-02</leafValues></_>
    <_>
      <internalNodes>
        0 -1 12528 -2.1938823163509369e-02</internalNodes>
      <leafValues>
        4.0888705849647522e-01 -8.7036363780498505e-02</leafValues></_>
    <_>
      <internalNodes>
        0 -1 120195 2.0666753873229027e-02</internalNodes>
      <leafValues>
        -5.7054754346609116e-02 5.3745090961456299e-01</leafValues></_>
    <_>
      <internalNodes>
        0 -1 43352 5.4141385480761528e-03</internalNodes>
      <leafValues>
        -1.1120719462633133e-01 3.0002313852310181e-01</leafValues></_>
    <_>
      <internalNodes>
        0 -1 91030 1.3307067751884460e-01</internalNodes>
      <leafValues>
        4.6334207057952881e-02 -7.5561267137527466e-01</leafValues></_>
    <_>
      <internalNodes>
        0 -1 204540 9.4816589262336493e-04</internalNodes>
      <leafValues>
        6.4823307096958160e-02 -4.8153951764106750e-01</leafValues></_>
    <_>
      <internalNodes>
        0 -1 94052 4.0471093961969018e-04</internalNodes>
      <leafValues>
        -1.5829762816429138e-01 2.0887541770935059e-01</leafValues></_>
    <_>
      <internalNodes>
        0 -1 175660 1.5429423365276307e-04</internalNodes>
      <leafValues>
        -1.2928043305873871e-01 2.5417727231979370e-01</leafValues></_>
    <_>
      <internalNodes>
        0 -1 235657 -2.8247693553566933e-02</internalNodes>
      <leafValues>
        3.1031197309494019e-01 -1.0668656229972839e-01</leafValues></_>
    <_>
      <internalNodes>
        0 -1 257333 -5.2852388471364975e-03</internalNodes>
      <leafValues>
        3.5584026575088501e-01 -1.1799217760562897e-01</leafValues></_>
    <_>
      <internalNodes>
        0 -1 177097 2.7245661476626992e-04</internalNodes>
      <leafValues>
        -1.2239091843366623e-01 2.4846987426280975e-01</leafValues></_>
    <_>
      <internalNodes>
        0 -1 260431 -1.1563195585040376e-05</internalNodes>
      <leafValues>
        1.8927906453609467e-01 -1.6016624867916107e-01</leafValues></_>
    <_>
      <internalNodes>
        0 -1 191477 2.0114518702030182e-02</internalNodes>
      <leafValues>
        -9.6384659409523010e-02 3.1946694850921631e-01</leafValues></_>
    <_>
      <internalNodes>
        0 -1 114650 -3.1307780742645264e-01</internalNodes>
      <leafValues>
        5.3161549568176270e-01 -5.6535776704549789e-02</leafValues></_>
    <_>
      <internalNodes>
        0 -1 238135 -2.6876110496232286e-05</internalNodes>
      <leafValues>
        2.2480958700180054e-01 -1.3869464397430420e-01</leafValues></_>
    <_>
      <internalNodes>
        0 -1 120174 7.1093463338911533e-03</internalNodes>
      <leafValues>
        -9.5178149640560150e-02 3.3188238739967346e-01</leafValues></_>
    <_>
      <internalNodes>
        0 -1 138675 -2.4004245642572641e-03</internalNodes>
      <leafValues>
        3.7292960286140442e-01 -7.7080257236957550e-02</leafValues></_>
    <_>
      <internalNodes>
        0 -1 244563 2.9913121834397316e-03</internalNodes>
      <leafValues>
        -1.2879101932048798e-01 2.4152347445487976e-01</leafValues></_>
    <_>
      <internalNodes>
        0 -1 136925 -5.3032618016004562e-02</internalNodes>
      <leafValues>
        2.7467519044876099e-01 -1.1611007153987885e-01</leafValues></_>
    <_>
      <internalNodes>
        0 -1 216918 5.6164758279919624e-03</internalNodes>
      <leafValues>
        -1.1328279227018356e-01 2.7827346324920654e-01</leafValues></_>
    <_>
      <internalNodes>
        0 -1 194167 -1.1636873241513968e-03</internalNodes>
      <leafValues>
        -3.9021551609039307e-01 8.2664638757705688e-02</leafValues></_>
    <_>
      <internalNodes>
        0 -1 149202 -5.5981650948524475e-02</internalNodes>
      <leafValues>
        -7.5504016876220703e-01 4.0591057389974594e-02</leafValues></_>
    <_>
      <internalNodes>
        0 -1 210492 8.7702535092830658e-03</internalNodes>
      <leafValues>
        -1.7688909173011780e-01 1.6903910040855408e-01</leafValues></_>
    <_>
      <internalNodes>
        0 -1 150471 -1.2040261026413646e-05</internalNodes>
      <leafValues>
        1.8106183409690857e-01 -1.7394809424877167e-01</leafValues></_>
    <_>
      <internalNodes>
        0 -1 255659 1.2502023309934884e-05</internalNodes>
      <leafValues>
        -1.5381547808647156e-01 1.9563823938369751e-01</leafValues></_>
    <_>
      <internalNodes>
        0 -1 187467 -2.7081272564828396e-03</internalNodes>
      <leafValues>
        3.3861473202705383e-01 -8.9662283658981323e-02</leafValues></_>
    <_>
      <internalNodes>
        0 -1 14418 -6.5091431140899658e-02</internalNodes>
      <leafValues>
        4.1691282391548157e-01 -6.5755270421504974e-02</leafValues></_>
    <_>
      <internalNodes>
        0 -1 207615 -3.1434609554708004e-03</internalNodes>
      <leafValues>
        5.1503783464431763e-01 -4.9653228372335434e-02</leafValues></_>
    <_>
      <internalNodes>
        0 -1 261573 -5.0966837443411350e-04</internalNodes>
      <leafValues>
        -3.3841705322265625e-01 8.7568931281566620e-02</leafValues></_>
    <_>
      <internalNodes>
        0 -1 160439 3.4909214824438095e-02</internalNodes>
      <leafValues>
        5.6820277124643326e-02 -4.7379785776138306e-01</leafValues></_>
    <_>
      <internalNodes>
        0 -1 227365 -1.6370192170143127e-03</internalNodes>
      <leafValues>
        3.4332835674285889e-01 -8.1691265106201172e-02</leafValues></_>
    <_>
      <internalNodes>
        0 -1 193961 -8.8793281465768814e-03</internalNodes>
      <leafValues>
        3.0356475710868835e-01 -8.3966344594955444e-02</leafValues></_>
    <_>
      <internalNodes>
        0 -1 261583 -5.8159267064183950e-04</internalNodes>
      <leafValues>
        -3.7758663296699524e-01 7.9898089170455933e-02</leafValues></_>
    <_>
      <internalNodes>
        0 -1 176390 -1.2040261026413646e-05</internalNodes>
      <leafValues>
        1.8814499676227570e-01 -1.5166698396205902e-01</leafValues></_>
    <_>
      <internalNodes>
        0 -1 176390 1.1966632882831618e-05</internalNodes>
      <leafValues>
        -1.5175499022006989e-01 1.8428930640220642e-01</leafValues></_>
    <_>
      <internalNodes>
        0 -1 251717 5.0608078017830849e-03</internalNodes>
      <leafValues>
        -8.9901536703109741e-02 2.9947784543037415e-01</leafValues></_>
    <_>
      <internalNodes>
        0 -1 206044 5.2474945550784469e-04</internalNodes>
      <leafValues>
        7.5971528887748718e-02 -3.8066709041595459e-01</leafValues></_>
    <_>
      <internalNodes>
        0 -1 222656 3.0970819352660328e-05</internalNodes>
      <leafValues>
        -1.7159271240234375e-01 1.5655606985092163e-01</leafValues></_>
    <_>
      <internalNodes>
        0 -1 222658 -1.0928211122518405e-04</internalNodes>
      <leafValues>
        2.1787030994892120e-01 -1.5563018620014191e-01</leafValues></_>
    <_>
      <internalNodes>
        0 -1 254357 -3.2996765803545713e-03</internalNodes>
      <leafValues>
        2.8161853551864624e-01 -9.7365386784076691e-02</leafValues></_>
    <_>
      <internalNodes>
        0 -1 12370 2.8857350116595626e-05</internalNodes>
      <leafValues>
        -1.4654019474983215e-01 1.8537053465843201e-01</leafValues></_>
    <_>
      <internalNodes>
        0 -1 9757 3.2007207628339529e-03</internalNodes>
      <leafValues>
        -8.5989117622375488e-02 3.2187440991401672e-01</leafValues></_>
    <_>
      <internalNodes>
        0 -1 109346 -5.8628232218325138e-03</internalNodes>
      <leafValues>
        3.2136070728302002e-01 -9.0744584798812866e-02</leafValues></_>
    <_>
      <internalNodes>
        0 -1 256211 -7.5909530278295279e-04</internalNodes>
      <leafValues>
        -4.6947911381721497e-01 6.5582923591136932e-02</leafValues></_>
    <_>
      <internalNodes>
        0 -1 92528 4.1308365762233734e-03</internalNodes>
      <leafValues>
        -9.9779598414897919e-02 2.7702978253364563e-01</leafValues></_>
    <_>
      <internalNodes>
        0 -1 135802 -3.7020407617092133e-02</internalNodes>
      <leafValues>
        -6.8165868520736694e-01 4.2001459747552872e-02</leafValues></_>
    <_>
      <internalNodes>
        0 -1 193011 3.3086913172155619e-03</internalNodes>
      <leafValues>
        -5.5209387093782425e-02 5.1570427417755127e-01</leafValues></_>
    <_>
      <internalNodes>
        0 -1 105407 3.5450018942356110e-02</internalNodes>
      <leafValues>
        4.6295128762722015e-02 -6.2542098760604858e-01</leafValues></_>
    <_>
      <internalNodes>
        0 -1 204155 -8.6950289551168680e-04</internalNodes>
      <leafValues>
        -4.5380246639251709e-01 5.3161777555942535e-02</leafValues></_>
    <_>
      <internalNodes>
        0 -1 180764 -2.5827130302786827e-03</internalNodes>
      <leafValues>
        4.9026274681091309e-01 -6.2467876821756363e-02</leafValues></_>
    <_>
      <internalNodes>
        0 -1 178320 -3.0977724236436188e-04</internalNodes>
      <leafValues>
        2.0022489130496979e-01 -1.3066641986370087e-01</leafValues></_>
    <_>
      <internalNodes>
        0 -1 177735 2.2348525817506015e-04</internalNodes>
      <leafValues>
        -1.1415709555149078e-01 2.3324383795261383e-01</leafValues></_>
    <_>
      <internalNodes>
        0 -1 261597 -7.4785266770049930e-04</internalNodes>
      <leafValues>
        -3.9890524744987488e-01 6.7525990307331085e-02</leafValues></_>
    <_>
      <internalNodes>
        0 -1 187702 -5.3026020526885986e-02</internalNodes>
      <leafValues>
        -7.6788157224655151e-01 3.1474512070417404e-02</leafValues></_>
    <_>
      <internalNodes>
        0 -1 49726 1.1966632882831618e-05</internalNodes>
      <leafValues>
        -1.4085975289344788e-01 1.9948777556419373e-01</leafValues></_>
    <_>
      <internalNodes>
        0 -1 177735 -2.0499638048931956e-04</internalNodes>
      <leafValues>
        2.0801220834255219e-01 -1.2941758334636688e-01</leafValues></_></weakClassifiers></stage11>
</opencv_storage>
