<?xml version="1.0"?>
<opencv_storage>
<stage16>
  <maxWeakCount>100</maxWeakCount>
  <stageThreshold>-1.1075247526168823e+00</stageThreshold>
  <weakClassifiers>
    <_>
      <internalNodes>
        0 -1 261118 -5.3977017523720860e-04</internalNodes>
      <leafValues>
        9.0733587741851807e-02 5.1670074462890625e-01</leafValues></_>
    <_>
      <internalNodes>
        0 -1 77751 -1.1477477848529816e-01</internalNodes>
      <leafValues>
        3.0436405539512634e-01 -9.1641396284103394e-02</leafValues></_>
    <_>
      <internalNodes>
        0 -1 176391 2.2472432465292513e-04</internalNodes>
      <leafValues>
        -1.2520240247249603e-01 1.9582478702068329e-01</leafValues></_>
    <_>
      <internalNodes>
        0 -1 193430 6.1088264919817448e-04</internalNodes>
      <leafValues>
        6.2372002750635147e-02 -3.8083723187446594e-01</leafValues></_>
    <_>
      <internalNodes>
        0 -1 177736 1.2447579763829708e-02</internalNodes>
      <leafValues>
        -5.7091951370239258e-02 4.1180643439292908e-01</leafValues></_>
    <_>
      <internalNodes>
        0 -1 121701 3.7422832101583481e-02</internalNodes>
      <leafValues>
        2.3262580856680870e-02 -5.4977941513061523e-01</leafValues></_>
    <_>
      <internalNodes>
        0 -1 33840 1.8337373621761799e-03</internalNodes>
      <leafValues>
        3.9100062102079391e-02 -6.3061189651489258e-01</leafValues></_>
    <_>
      <internalNodes>
        0 -1 33839 1.1809704119514208e-05</internalNodes>
      <leafValues>
        -1.2505920231342316e-01 1.7792955040931702e-01</leafValues></_>
    <_>
      <internalNodes>
        0 -1 7719 4.0653040632605553e-03</internalNodes>
      <leafValues>
        -1.1256373673677444e-01 2.1710583567619324e-01</leafValues></_>
    <_>
      <internalNodes>
        0 -1 50393 6.8515760358422995e-04</internalNodes>
      <leafValues>
        4.8377964645624161e-02 -4.6838811039924622e-01</leafValues></_>
    <_>
      <internalNodes>
        0 -1 247662 2.1860610693693161e-02</internalNodes>
      <leafValues>
        -1.0177305340766907e-01 2.2032289206981659e-01</leafValues></_>
    <_>
      <internalNodes>
        0 -1 248041 -9.0468730777502060e-03</internalNodes>
      <leafValues>
        3.0179384350776672e-01 -6.6206976771354675e-02</leafValues></_>
    <_>
      <internalNodes>
        0 -1 235735 -5.0391694530844688e-03</internalNodes>
      <leafValues>
        2.7281570434570312e-01 -9.3448437750339508e-02</leafValues></_>
    <_>
      <internalNodes>
        0 -1 260671 -1.1077149792981800e-05</internalNodes>
      <leafValues>
        1.5797208249568939e-01 -1.3443623483181000e-01</leafValues></_>
    <_>
      <internalNodes>
        0 -1 165823 -6.3756923191249371e-04</internalNodes>
      <leafValues>
        2.0567497611045837e-01 -9.8442643880844116e-02</leafValues></_>
    <_>
      <internalNodes>
        0 -1 177092 1.6346925985999405e-04</internalNodes>
      <leafValues>
        -1.2990435957908630e-01 1.6301563382148743e-01</leafValues></_>
    <_>
      <internalNodes>
        0 -1 261566 -8.6949986871331930e-04</internalNodes>
      <leafValues>
        -2.6502627134323120e-01 8.2011431455612183e-02</leafValues></_>
    <_>
      <internalNodes>
        0 -1 189746 9.0953018516302109e-03</internalNodes>
      <leafValues>
        2.8088130056858063e-02 -7.7381223440170288e-01</leafValues></_>
    <_>
      <internalNodes>
        0 -1 257752 -2.9006833210587502e-03</internalNodes>
      <leafValues>
        4.9033126235008240e-01 -4.7524318099021912e-02</leafValues></_>
    <_>
      <internalNodes>
        0 -1 260177 4.0715439245104790e-03</internalNodes>
      <leafValues>
        -7.9403012990951538e-02 2.7883496880531311e-01</leafValues></_>
    <_>
      <internalNodes>
        0 -1 261572 4.8631150275468826e-04</internalNodes>
      <leafValues>
        6.4644508063793182e-02 -3.4929415583610535e-01</leafValues></_>
    <_>
      <internalNodes>
        0 -1 260461 -3.9038059767335653e-03</internalNodes>
      <leafValues>
        3.4116390347480774e-01 -6.1501625925302505e-02</leafValues></_>
    <_>
      <internalNodes>
        0 -1 360 1.1575083481147885e-03</internalNodes>
      <leafValues>
        7.3590196669101715e-02 -3.0557250976562500e-01</leafValues></_>
    <_>
      <internalNodes>
        0 -1 220908 -2.0377032458782196e-02</internalNodes>
      <leafValues>
        -5.0533515214920044e-01 3.5859074443578720e-02</leafValues></_>
    <_>
      <internalNodes>
        0 -1 150957 5.7777442038059235e-02</internalNodes>
      <leafValues>
        -8.9267916977405548e-02 2.5885477662086487e-01</leafValues></_>
    <_>
      <internalNodes>
        0 -1 110386 -4.8104643821716309e-02</internalNodes>
      <leafValues>
        2.3673248291015625e-01 -1.0424658656120300e-01</leafValues></_>
    <_>
      <internalNodes>
        0 -1 57595 2.6688072830438614e-03</internalNodes>
      <leafValues>
        -1.1109605431556702e-01 1.9239766895771027e-01</leafValues></_>
    <_>
      <internalNodes>
        0 -1 26019 3.2955254428088665e-03</internalNodes>
      <leafValues>
        -8.7176159024238586e-02 2.6287454366683960e-01</leafValues></_>
    <_>
      <internalNodes>
        0 -1 116737 1.7446164041757584e-02</internalNodes>
      <leafValues>
        -1.2377799302339554e-01 1.7524749040603638e-01</leafValues></_>
    <_>
      <internalNodes>
        0 -1 175660 1.1563195585040376e-05</internalNodes>
      <leafValues>
        -1.2501955032348633e-01 1.7240044474601746e-01</leafValues></_>
    <_>
      <internalNodes>
        0 -1 97151 1.5416631475090981e-02</internalNodes>
      <leafValues>
        -5.1039017736911774e-02 3.7408569455146790e-01</leafValues></_>
    <_>
      <internalNodes>
        0 -1 164729 -2.2608451545238495e-02</internalNodes>
      <leafValues>
        -5.0262081623077393e-01 4.8409812152385712e-02</leafValues></_>
    <_>
      <internalNodes>
        0 -1 255518 -2.2645732678938657e-04</internalNodes>
      <leafValues>
        1.4471548795700073e-01 -1.2553644180297852e-01</leafValues></_>
    <_>
      <internalNodes>
        0 -1 202652 -2.6119742542505264e-03</internalNodes>
      <leafValues>
        1.4970450103282928e-01 -1.2846212089061737e-01</leafValues></_>
    <_>
      <internalNodes>
        0 -1 109073 -4.6929465606808662e-03</internalNodes>
      <leafValues>
        2.2424300014972687e-01 -8.6125344038009644e-02</leafValues></_>
    <_>
      <internalNodes>
        0 -1 128073 8.7929645087569952e-04</internalNodes>
      <leafValues>
        7.0252649486064911e-02 -2.7261680364608765e-01</leafValues></_>
    <_>
      <internalNodes>
        0 -1 191222 -2.7906927280128002e-03</internalNodes>
      <leafValues>
        2.5217565894126892e-01 -7.7509544789791107e-02</leafValues></_>
    <_>
      <internalNodes>
        0 -1 121042 -3.5042017698287964e-03</internalNodes>
      <leafValues>
        3.9374604821205139e-01 -4.8461098223924637e-02</leafValues></_>
    <_>
      <internalNodes>
        0 -1 104270 5.4804190993309021e-02</internalNodes>
      <leafValues>
        -4.8325352370738983e-02 3.8094508647918701e-01</leafValues></_>
    <_>
      <internalNodes>
        0 -1 109990 2.6778034225571901e-05</internalNodes>
      <leafValues>
        -1.3835360109806061e-01 1.5710806846618652e-01</leafValues></_>
    <_>
      <internalNodes>
        0 -1 17760 -7.1862107142806053e-04</internalNodes>
      <leafValues>
        -2.7865543961524963e-01 7.0837751030921936e-02</leafValues></_>
    <_>
      <internalNodes>
        0 -1 10951 -3.2479353249073029e-02</internalNodes>
      <leafValues>
        2.4060024321079254e-01 -7.9566776752471924e-02</leafValues></_>
    <_>
      <internalNodes>
        0 -1 149880 -4.3808703776448965e-04</internalNodes>
      <leafValues>
        1.3089223206043243e-01 -1.5603896975517273e-01</leafValues></_>
    <_>
      <internalNodes>
        0 -1 11342 -6.4008086919784546e-02</internalNodes>
      <leafValues>
        -5.0593286752700806e-01 4.1941255331039429e-02</leafValues></_>
    <_>
      <internalNodes>
        0 -1 5409 1.4878438785672188e-02</internalNodes>
      <leafValues>
        4.7904983162879944e-02 -3.6405283212661743e-01</leafValues></_>
    <_>
      <internalNodes>
        0 -1 7698 -3.7169894203543663e-03</internalNodes>
      <leafValues>
        2.4904114007949829e-01 -8.0872155725955963e-02</leafValues></_>
    <_>
      <internalNodes>
        0 -1 105293 1.1485869064927101e-02</internalNodes>
      <leafValues>
        5.3688649088144302e-02 -3.3872041106224060e-01</leafValues></_>
    <_>
      <internalNodes>
        0 -1 221107 1.3187071999709588e-05</internalNodes>
      <leafValues>
        -1.1554830521345139e-01 1.6468371450901031e-01</leafValues></_>
    <_>
      <internalNodes>
        0 -1 190050 -4.0216771885752678e-03</internalNodes>
      <leafValues>
        2.3477874696254730e-01 -9.1923072934150696e-02</leafValues></_>
    <_>
      <internalNodes>
        0 -1 202145 -2.3376122117042542e-03</internalNodes>
      <leafValues>
        2.0384371280670166e-01 -9.5694728195667267e-02</leafValues></_>
    <_>
      <internalNodes>
        0 -1 69870 -1.9009229540824890e-01</internalNodes>
      <leafValues>
        -6.9308531284332275e-01 2.7557121589779854e-02</leafValues></_>
    <_>
      <internalNodes>
        0 -1 153268 2.5951548013836145e-03</internalNodes>
      <leafValues>
        4.3183308094739914e-02 -3.9547643065452576e-01</leafValues></_>
    <_>
      <internalNodes>
        0 -1 165205 3.8816453889012337e-04</internalNodes>
      <leafValues>
        -9.4380572438240051e-02 1.9435906410217285e-01</leafValues></_>
    <_>
      <internalNodes>
        0 -1 108691 2.6336454902775586e-04</internalNodes>
      <leafValues>
        -1.2080121785402298e-01 1.6889016330242157e-01</leafValues></_>
    <_>
      <internalNodes>
        0 -1 78663 -2.2674702107906342e-02</internalNodes>
      <leafValues>
        2.1491236984729767e-01 -8.3215884864330292e-02</leafValues></_>
    <_>
      <internalNodes>
        0 -1 61007 3.1201675534248352e-02</internalNodes>
      <leafValues>
        2.6467103511095047e-02 -8.3654224872589111e-01</leafValues></_>
    <_>
      <internalNodes>
        0 -1 204331 6.7446328466758132e-04</internalNodes>
      <leafValues>
        5.6443702429533005e-02 -3.0032637715339661e-01</leafValues></_>
    <_>
      <internalNodes>
        0 -1 7698 3.1279590912163258e-03</internalNodes>
      <leafValues>
        -7.9612590372562408e-02 2.4711234867572784e-01</leafValues></_>
    <_>
      <internalNodes>
        0 -1 200536 2.4704990210011601e-04</internalNodes>
      <leafValues>
        -1.0906904190778732e-01 1.8327902257442474e-01</leafValues></_>
    <_>
      <internalNodes>
        0 -1 4106 -6.4528780058026314e-04</internalNodes>
      <leafValues>
        -3.8039141893386841e-01 4.9291543662548065e-02</leafValues></_>
    <_>
      <internalNodes>
        0 -1 245283 3.6288681440055370e-03</internalNodes>
      <leafValues>
        -9.2586465179920197e-02 2.1112126111984253e-01</leafValues></_>
    <_>
      <internalNodes>
        0 -1 210084 -4.5283466577529907e-02</internalNodes>
      <leafValues>
        -7.0746183395385742e-01 2.7656702324748039e-02</leafValues></_>
    <_>
      <internalNodes>
        0 -1 177356 -1.2553391046822071e-02</internalNodes>
      <leafValues>
        -4.6404814720153809e-01 3.7528097629547119e-02</leafValues></_>
    <_>
      <internalNodes>
        0 -1 20132 -1.1297815944999456e-03</internalNodes>
      <leafValues>
        -3.0281749367713928e-01 5.4412126541137695e-02</leafValues></_>
    <_>
      <internalNodes>
        0 -1 260349 9.8706106655299664e-04</internalNodes>
      <leafValues>
        -9.5232278108596802e-02 2.0895546674728394e-01</leafValues></_>
    <_>
      <internalNodes>
        0 -1 218277 1.2447828194126487e-03</internalNodes>
      <leafValues>
        -7.8531771898269653e-02 2.3607911169528961e-01</leafValues></_>
    <_>
      <internalNodes>
        0 -1 218277 -1.8048076890408993e-03</internalNodes>
      <leafValues>
        3.1366503238677979e-01 -7.2246000170707703e-02</leafValues></_>
    <_>
      <internalNodes>
        0 -1 57069 2.5882560014724731e-01</internalNodes>
      <leafValues>
        3.0838623642921448e-02 -6.3624227046966553e-01</leafValues></_>
    <_>
      <internalNodes>
        0 -1 200095 9.6698123961687088e-03</internalNodes>
      <leafValues>
        -1.3923108577728271e-01 1.6386179625988007e-01</leafValues></_>
    <_>
      <internalNodes>
        0 -1 39763 -1.2206367403268814e-01</internalNodes>
      <leafValues>
        3.1856963038444519e-01 -8.0498203635215759e-02</leafValues></_>
    <_>
      <internalNodes>
        0 -1 178317 3.1662853871239349e-05</internalNodes>
      <leafValues>
        -9.5741406083106995e-02 2.0701807737350464e-01</leafValues></_>
    <_>
      <internalNodes>
        0 -1 212833 1.2212186120450497e-03</internalNodes>
      <leafValues>
        -9.1116167604923248e-02 2.1817471086978912e-01</leafValues></_>
    <_>
      <internalNodes>
        0 -1 198845 2.8910372406244278e-02</internalNodes>
      <leafValues>
        3.3230882138013840e-02 -6.0157704353332520e-01</leafValues></_>
    <_>
      <internalNodes>
        0 -1 89701 2.4966462515294552e-03</internalNodes>
      <leafValues>
        -8.2763135433197021e-02 2.2841253876686096e-01</leafValues></_>
    <_>
      <internalNodes>
        0 -1 89711 -1.4726130757480860e-03</internalNodes>
      <leafValues>
        2.0472136139869690e-01 -9.6974425017833710e-02</leafValues></_>
    <_>
      <internalNodes>
        0 -1 16765 -1.0417718440294266e-03</internalNodes>
      <leafValues>
        -3.8018172979354858e-01 5.3072251379489899e-02</leafValues></_>
    <_>
      <internalNodes>
        0 -1 221108 1.2912780221085995e-05</internalNodes>
      <leafValues>
        -1.2693709135055542e-01 1.4178143441677094e-01</leafValues></_>
    <_>
      <internalNodes>
        0 -1 1456 1.1685824574669823e-05</internalNodes>
      <leafValues>
        -1.1371532082557678e-01 1.5406601130962372e-01</leafValues></_>
    <_>
      <internalNodes>
        0 -1 43762 6.2075965106487274e-02</internalNodes>
      <leafValues>
        3.0609296634793282e-02 -5.7254260778427124e-01</leafValues></_>
    <_>
      <internalNodes>
        0 -1 229935 2.7573372790357098e-05</internalNodes>
      <leafValues>
        -1.2795302271842957e-01 1.3490650057792664e-01</leafValues></_>
    <_>
      <internalNodes>
        0 -1 244356 2.8854431002400815e-04</internalNodes>
      <leafValues>
        -1.0182478278875351e-01 1.8287128210067749e-01</leafValues></_>
    <_>
      <internalNodes>
        0 -1 120219 -1.9584108144044876e-02</internalNodes>
      <leafValues>
        -8.0230802297592163e-01 2.2536430507898331e-02</leafValues></_>
    <_>
      <internalNodes>
        0 -1 169043 2.4157108273357153e-03</internalNodes>
      <leafValues>
        2.5292916223406792e-02 -5.9722959995269775e-01</leafValues></_>
    <_>
      <internalNodes>
        0 -1 236310 3.0400976538658142e-03</internalNodes>
      <leafValues>
        -5.2467744797468185e-02 3.8786616921424866e-01</leafValues></_>
    <_>
      <internalNodes>
        0 -1 256370 -7.4791279621422291e-04</internalNodes>
      <leafValues>
        -2.7058795094490051e-01 6.1419755220413208e-02</leafValues></_>
    <_>
      <internalNodes>
        0 -1 140459 -1.8194199074059725e-03</internalNodes>
      <leafValues>
        1.8376433849334717e-01 -9.3031242489814758e-02</leafValues></_>
    <_>
      <internalNodes>
        0 -1 107463 -1.8136063218116760e-01</internalNodes>
      <leafValues>
        1.5899738669395447e-01 -1.1725008487701416e-01</leafValues></_>
    <_>
      <internalNodes>
        0 -1 225473 -2.7378308586776257e-03</internalNodes>
      <leafValues>
        2.9475343227386475e-01 -6.0148429125547409e-02</leafValues></_>
    <_>
      <internalNodes>
        0 -1 250591 1.6959398053586483e-03</internalNodes>
      <leafValues>
        -1.1044590175151825e-01 1.5649479627609253e-01</leafValues></_>
    <_>
      <internalNodes>
        0 -1 201997 -1.9513567909598351e-02</internalNodes>
      <leafValues>
        2.5138136744499207e-01 -8.7637417018413544e-02</leafValues></_>
    <_>
      <internalNodes>
        0 -1 250965 -1.2690686162386555e-05</internalNodes>
      <leafValues>
        1.5844960510730743e-01 -1.2550416588783264e-01</leafValues></_>
    <_>
      <internalNodes>
        0 -1 239690 1.4283983036875725e-03</internalNodes>
      <leafValues>
        4.9040481448173523e-02 -3.6909601092338562e-01</leafValues></_>
    <_>
      <internalNodes>
        0 -1 90266 -8.7620943784713745e-02</internalNodes>
      <leafValues>
        -3.9543855190277100e-01 4.4933415949344635e-02</leafValues></_>
    <_>
      <internalNodes>
        0 -1 26873 -5.8117979206144810e-03</internalNodes>
      <leafValues>
        1.5852712094783783e-01 -1.2195207923650742e-01</leafValues></_>
    <_>
      <internalNodes>
        0 -1 79597 9.8494791018310934e-05</internalNodes>
      <leafValues>
        -1.1769149452447891e-01 1.5417204797267914e-01</leafValues></_>
    <_>
      <internalNodes>
        0 -1 62671 3.2491846941411495e-03</internalNodes>
      <leafValues>
        -4.1816890239715576e-02 4.6603184938430786e-01</leafValues></_>
    <_>
      <internalNodes>
        0 -1 123496 -2.2912803106009960e-03</internalNodes>
      <leafValues>
        1.9054867327213287e-01 -8.6360387504100800e-02</leafValues></_>
    <_>
      <internalNodes>
        0 -1 153177 -1.4689558185636997e-02</internalNodes>
      <leafValues>
        -6.2792372703552246e-01 3.0171554535627365e-02</leafValues></_>
    <_>
      <internalNodes>
        0 -1 133824 1.4278945513069630e-02</internalNodes>
      <leafValues>
        2.6423171162605286e-02 -6.1437547206878662e-01</leafValues></_>
    <_>
      <internalNodes>
        0 -1 146049 4.1427081450819969e-03</internalNodes>
      <leafValues>
        -8.0393612384796143e-02 2.5093013048171997e-01</leafValues></_></weakClassifiers></stage16>
</opencv_storage>
