<?xml version="1.0"?>
<opencv_storage>
<stage9>
  <maxWeakCount>51</maxWeakCount>
  <stageThreshold>-1.1013729572296143e+00</stageThreshold>
  <weakClassifiers>
    <_>
      <internalNodes>
        0 -1 164776 -5.6990189477801323e-03</internalNodes>
      <leafValues>
        6.2037914991378784e-01 1.8926975131034851e-01</leafValues></_>
    <_>
      <internalNodes>
        0 -1 200536 1.4257506336434744e-05</internalNodes>
      <leafValues>
        -1.4550921320915222e-01 3.1917053461074829e-01</leafValues></_>
    <_>
      <internalNodes>
        0 -1 147899 2.6763784699141979e-03</internalNodes>
      <leafValues>
        -8.3028987050056458e-02 5.7780379056930542e-01</leafValues></_>
    <_>
      <internalNodes>
        0 -1 111890 8.5572041571140289e-03</internalNodes>
      <leafValues>
        -1.3373182713985443e-01 4.0508475899696350e-01</leafValues></_>
    <_>
      <internalNodes>
        0 -1 242296 -6.2270574271678925e-02</internalNodes>
      <leafValues>
        2.7053174376487732e-01 -1.9520920515060425e-01</leafValues></_>
    <_>
      <internalNodes>
        0 -1 199930 3.0764436814934015e-05</internalNodes>
      <leafValues>
        -1.8330425024032593e-01 2.7023264765739441e-01</leafValues></_>
    <_>
      <internalNodes>
        0 -1 198061 9.4440728425979614e-03</internalNodes>
      <leafValues>
        -9.3219660222530365e-02 4.8512491583824158e-01</leafValues></_>
    <_>
      <internalNodes>
        0 -1 147899 -2.5774920359253883e-03</internalNodes>
      <leafValues>
        5.2531522512435913e-01 -8.2871429622173309e-02</leafValues></_>
    <_>
      <internalNodes>
        0 -1 11554 2.6793990400619805e-05</internalNodes>
      <leafValues>
        -1.8475921452045441e-01 2.3625898361206055e-01</leafValues></_>
    <_>
      <internalNodes>
        0 -1 50188 -9.6308864885941148e-04</internalNodes>
      <leafValues>
        -4.3347176909446716e-01 1.0047241300344467e-01</leafValues></_>
    <_>
      <internalNodes>
        0 -1 183774 7.3296931805089116e-04</internalNodes>
      <leafValues>
        8.6938008666038513e-02 -4.6746262907981873e-01</leafValues></_>
    <_>
      <internalNodes>
        0 -1 43101 -5.4051834158599377e-03</internalNodes>
      <leafValues>
        4.6237245202064514e-01 -9.2557132244110107e-02</leafValues></_>
    <_>
      <internalNodes>
        0 -1 260597 -2.9723569241468795e-05</internalNodes>
      <leafValues>
        2.2232151031494141e-01 -1.7911885678768158e-01</leafValues></_>
    <_>
      <internalNodes>
        0 -1 258511 -1.5761561226099730e-03</internalNodes>
      <leafValues>
        5.0903147459030151e-01 -8.0476276576519012e-02</leafValues></_>
    <_>
      <internalNodes>
        0 -1 158844 -8.5807463619858027e-04</internalNodes>
      <leafValues>
        -3.4732159972190857e-01 1.2108151614665985e-01</leafValues></_>
    <_>
      <internalNodes>
        0 -1 201092 -2.7458625845611095e-04</internalNodes>
      <leafValues>
        3.1489330530166626e-01 -1.3182625174522400e-01</leafValues></_>
    <_>
      <internalNodes>
        0 -1 201092 2.3637802223674953e-04</internalNodes>
      <leafValues>
        -1.6701866686344147e-01 2.9887419939041138e-01</leafValues></_>
    <_>
      <internalNodes>
        0 -1 58087 1.8567472696304321e-01</internalNodes>
      <leafValues>
        6.1816353350877762e-02 -6.8484336137771606e-01</leafValues></_>
    <_>
      <internalNodes>
        0 -1 38943 1.1809704119514208e-05</internalNodes>
      <leafValues>
        -1.7782296240329742e-01 2.2391453385353088e-01</leafValues></_>
    <_>
      <internalNodes>
        0 -1 90609 3.4551825374364853e-03</internalNodes>
      <leafValues>
        -6.1385419219732285e-02 6.2263423204421997e-01</leafValues></_>
    <_>
      <internalNodes>
        0 -1 224002 -8.2431995542719960e-04</internalNodes>
      <leafValues>
        -5.6594830751419067e-01 7.5318507850170135e-02</leafValues></_>
    <_>
      <internalNodes>
        0 -1 209043 -2.1440398413687944e-03</internalNodes>
      <leafValues>
        4.3858286738395691e-01 -9.4174750149250031e-02</leafValues></_>
    <_>
      <internalNodes>
        0 -1 218277 -2.7730097062885761e-03</internalNodes>
      <leafValues>
        5.4938042163848877e-01 -6.9131352007389069e-02</leafValues></_>
    <_>
      <internalNodes>
        0 -1 178323 -3.1889465171843767e-03</internalNodes>
      <leafValues>
        2.4697670340538025e-01 -1.5617115795612335e-01</leafValues></_>
    <_>
      <internalNodes>
        0 -1 128585 -1.1593555100262165e-03</internalNodes>
      <leafValues>
        -3.6876693367958069e-01 1.0549111664295197e-01</leafValues></_>
    <_>
      <internalNodes>
        0 -1 193015 9.4478074461221695e-03</internalNodes>
      <leafValues>
        -6.9832228124141693e-02 5.8124113082885742e-01</leafValues></_>
    <_>
      <internalNodes>
        0 -1 67729 3.1524789333343506e-01</internalNodes>
      <leafValues>
        6.3225843012332916e-02 -6.5847241878509521e-01</leafValues></_>
    <_>
      <internalNodes>
        0 -1 105159 -1.1643106117844582e-02</internalNodes>
      <leafValues>
        4.9758830666542053e-01 -7.9859972000122070e-02</leafValues></_>
    <_>
      <internalNodes>
        0 -1 58782 -6.8788728676736355e-03</internalNodes>
      <leafValues>
        3.5048508644104004e-01 -1.0538811981678009e-01</leafValues></_>
    <_>
      <internalNodes>
        0 -1 136437 1.3171609680284746e-05</internalNodes>
      <leafValues>
        -1.6171781718730927e-01 2.2346639633178711e-01</leafValues></_>
    <_>
      <internalNodes>
        0 -1 42970 8.4928698837757111e-02</internalNodes>
      <leafValues>
        5.3276114165782928e-02 -7.5381165742874146e-01</leafValues></_>
    <_>
      <internalNodes>
        0 -1 128113 1.0576208587735891e-03</internalNodes>
      <leafValues>
        5.2944712340831757e-02 -5.9437721967697144e-01</leafValues></_>
    <_>
      <internalNodes>
        0 -1 202876 -3.7256763316690922e-03</internalNodes>
      <leafValues>
        3.5588547587394714e-01 -1.1692795157432556e-01</leafValues></_>
    <_>
      <internalNodes>
        0 -1 141426 -1.5196233987808228e-02</internalNodes>
      <leafValues>
        5.7294535636901855e-01 -6.4977325499057770e-02</leafValues></_>
    <_>
      <internalNodes>
        0 -1 29858 2.7957358397543430e-03</internalNodes>
      <leafValues>
        -1.1261043697595596e-01 3.2524374127388000e-01</leafValues></_>
    <_>
      <internalNodes>
        0 -1 151938 2.3232010425999761e-04</internalNodes>
      <leafValues>
        -1.3395175337791443e-01 2.6926600933074951e-01</leafValues></_>
    <_>
      <internalNodes>
        0 -1 12022 -1.3411360979080200e-01</internalNodes>
      <leafValues>
        2.1393054723739624e-01 -1.8042959272861481e-01</leafValues></_>
    <_>
      <internalNodes>
        0 -1 238669 -1.1943505342060234e-05</internalNodes>
      <leafValues>
        2.2998289763927460e-01 -1.7554636299610138e-01</leafValues></_>
    <_>
      <internalNodes>
        0 -1 1677 1.0518769267946482e-03</internalNodes>
      <leafValues>
        9.3366459012031555e-02 -4.1824415326118469e-01</leafValues></_>
    <_>
      <internalNodes>
        0 -1 210673 -5.3002014756202698e-03</internalNodes>
      <leafValues>
        4.9511846899986267e-01 -8.1932432949542999e-02</leafValues></_>
    <_>
      <internalNodes>
        0 -1 208354 2.0666411146521568e-03</internalNodes>
      <leafValues>
        -9.1044478118419647e-02 4.0061128139495850e-01</leafValues></_>
    <_>
      <internalNodes>
        0 -1 140850 2.9464215913321823e-05</internalNodes>
      <leafValues>
        -1.4535641670227051e-01 2.6541671156883240e-01</leafValues></_>
    <_>
      <internalNodes>
        0 -1 153503 -8.4694027900695801e-02</internalNodes>
      <leafValues>
        4.0152958035469055e-01 -9.5862194895744324e-02</leafValues></_>
    <_>
      <internalNodes>
        0 -1 188376 4.2340800166130066e-02</internalNodes>
      <leafValues>
        6.3072912395000458e-02 -7.9172331094741821e-01</leafValues></_>
    <_>
      <internalNodes>
        0 -1 17488 -9.5125840744003654e-04</internalNodes>
      <leafValues>
        -5.2456432580947876e-01 7.0478156208992004e-02</leafValues></_>
    <_>
      <internalNodes>
        0 -1 249561 8.4718875586986542e-03</internalNodes>
      <leafValues>
        -8.8432207703590393e-02 5.1052254438400269e-01</leafValues></_>
    <_>
      <internalNodes>
        0 -1 63414 2.3789515253156424e-03</internalNodes>
      <leafValues>
        -1.1824451386928558e-01 3.4520781040191650e-01</leafValues></_>
    <_>
      <internalNodes>
        0 -1 151943 1.8392549827694893e-04</internalNodes>
      <leafValues>
        -1.4089098572731018e-01 2.5738173723220825e-01</leafValues></_>
    <_>
      <internalNodes>
        0 -1 115021 -7.3735869955271482e-04</internalNodes>
      <leafValues>
        -3.6530098319053650e-01 1.0501624643802643e-01</leafValues></_>
    <_>
      <internalNodes>
        0 -1 75772 -2.0858645439147949e-03</internalNodes>
      <leafValues>
        4.6877735853195190e-01 -8.7849989533424377e-02</leafValues></_>
    <_>
      <internalNodes>
        0 -1 188983 3.9914790540933609e-03</internalNodes>
      <leafValues>
        -1.9791306555271149e-01 1.8325135111808777e-01</leafValues></_></weakClassifiers></stage9>
</opencv_storage>
